//Numpy array shape [512, 49]
//Min -0.142088904977
//Max 0.142011657357
//Number of zeros 0

#ifndef W17_H_
#define W17_H_

#ifndef __SYNTHESIS__
nerual_dense_weight_t w17[25088];
#else
nerual_dense_weight_t w17[25088] = {0.0781250, 0.0000000, 0.0156250, -0.0156250, 0.0625000, -0.1250000, -0.0156250, -0.0468750, 0.0078125, -0.0781250, -0.0468750, -0.0781250, 0.0390625, -0.1328125, 0.0390625, 0.0625000, -0.0078125, -0.0312500, 0.0312500, -0.0312500, 0.0312500, 0.0859375, -0.1406250, 0.0156250, 0.0781250, 0.0078125, 0.0703125, 0.0625000, 0.0234375, 0.0234375, 0.0000000, 0.1015625, 0.0078125, -0.0156250, 0.0937500, 0.0078125, -0.1015625, 0.0234375, 0.0625000, -0.0468750, -0.0468750, -0.0703125, 0.0546875, -0.0546875, -0.0937500, 0.0703125, -0.0859375, 0.0781250, 0.1171875, 0.0234375, -0.0625000, 0.0078125, 0.0625000, -0.0703125, -0.0312500, -0.0546875, 0.0000000, -0.0390625, -0.0468750, -0.0234375, -0.0546875, 0.0937500, 0.0468750, 0.0078125, -0.0625000, -0.1015625, -0.0078125, 0.0703125, 0.1250000, -0.0468750, 0.0468750, 0.0546875, -0.0625000, -0.0156250, 0.0000000, -0.1328125, 0.0546875, 0.0546875, 0.0234375, -0.0312500, -0.0703125, 0.0312500, -0.0937500, -0.1093750, -0.0312500, 0.0859375, 0.0937500, 0.0703125, -0.0234375, 0.1015625, -0.0546875, -0.0468750, -0.0937500, -0.0546875, 0.0156250, 0.0078125, 0.0859375, -0.0390625, 0.0781250, 0.0234375, -0.0078125, 0.0468750, -0.0546875, -0.0156250, -0.0546875, -0.0078125, -0.0859375, 0.0156250, 0.0312500, -0.0156250, -0.0234375, 0.0078125, -0.0390625, 0.0859375, -0.0078125, -0.0546875, -0.0390625, -0.0859375, 0.0468750, -0.0234375, -0.1171875, 0.0078125, 0.0156250, 0.0468750, -0.1328125, 0.0546875, -0.0468750, 0.0234375, 0.0390625, -0.1250000, 0.1406250, 0.0234375, 0.0234375, 0.0625000, -0.0390625, 0.0078125, 0.0078125, 0.0078125, -0.1171875, -0.0390625, -0.0781250, 0.0781250, -0.0312500, 0.0234375, 0.0312500, 0.0625000, 0.0312500, 0.0703125, 0.0390625, 0.0234375, -0.0468750, -0.0468750, 0.1093750, 0.0625000, 0.0312500, -0.0078125, 0.0781250, -0.0078125, 0.0390625, 0.0625000, -0.1015625, -0.0546875, 0.0546875, 0.0468750, -0.0546875, -0.0312500, 0.0156250, 0.0546875, -0.0312500, 0.0937500, 0.0859375, -0.0781250, 0.0546875, -0.0781250, 0.0000000, 0.0625000, 0.0781250, -0.0156250, -0.1171875, 0.0703125, 0.0937500, -0.0546875, 0.0703125, 0.0703125, 0.0312500, 0.0234375, 0.0390625, -0.0703125, 0.0390625, -0.1015625, 0.0625000, 0.0078125, -0.0781250, -0.0625000, -0.0234375, -0.0546875, 0.1250000, -0.0781250, 0.0000000, 0.0234375, -0.0312500, -0.0468750, -0.0078125, -0.0078125, 0.0468750, 0.0000000, 0.0312500, -0.0546875, -0.0234375, -0.0859375, -0.0312500, 0.0546875, 0.0078125, 0.0234375, 0.0234375, 0.0703125, 0.1328125, -0.0937500, -0.0234375, 0.0234375, -0.0312500, -0.0390625, -0.0781250, -0.0859375, 0.0000000, 0.1250000, -0.1093750, 0.0156250, -0.0468750, -0.0859375, -0.0156250, -0.1250000, 0.0000000, 0.0625000, 0.0078125, 0.0078125, -0.0781250, -0.0156250, 0.0234375, -0.0078125, 0.0937500, 0.0234375, 0.0390625, -0.0312500, -0.0703125, -0.1093750, -0.1171875, 0.0078125, -0.0546875, -0.1093750, 0.0234375, 0.0937500, 0.0234375, -0.0781250, 0.1171875, -0.0468750, -0.0312500, 0.0312500, -0.0703125, -0.0156250, -0.1093750, 0.0781250, -0.0312500, -0.0078125, -0.0390625, -0.1093750, 0.0468750, 0.0000000, 0.0078125, -0.0390625, 0.0703125, 0.0312500, 0.0312500, 0.0156250, -0.0312500, 0.0234375, -0.1015625, -0.0078125, -0.0937500, -0.0312500, -0.0156250, -0.0078125, 0.0546875, 0.1015625, 0.0000000, 0.0078125, -0.0312500, 0.0468750, 0.0156250, 0.0234375, -0.0625000, -0.0078125, 0.0625000, 0.0937500, 0.0156250, 0.0390625, -0.0234375, -0.0234375, -0.0078125, -0.1171875, -0.0625000, -0.0703125, 0.0000000, 0.0468750, -0.0234375, -0.0312500, -0.0546875, -0.0156250, 0.0625000, 0.0078125, 0.1015625, -0.0312500, 0.0390625, 0.0390625, -0.1250000, -0.0234375, -0.0390625, 0.0234375, 0.0468750, 0.0078125, -0.0468750, 0.0156250, 0.0000000, 0.0859375, 0.0781250, -0.0234375, 0.0156250, 0.0000000, -0.1015625, 0.0937500, 0.1015625, 0.0625000, -0.0468750, -0.0078125, -0.0312500, 0.0859375, 0.0078125, 0.0078125, -0.0781250, -0.0234375, 0.0000000, -0.0390625, 0.0312500, -0.1015625, 0.0000000, 0.1093750, 0.0234375, 0.1250000, -0.0390625, -0.0859375, -0.0312500, -0.0234375, 0.0390625, 0.0937500, -0.0625000, -0.0078125, -0.0312500, -0.0234375, 0.0312500, 0.0625000, -0.0546875, -0.0234375, -0.0390625, -0.0468750, -0.0625000, 0.0156250, -0.0234375, -0.0390625, 0.0156250, 0.0234375, -0.0937500, 0.0468750, -0.0234375, -0.0703125, -0.0312500, -0.0312500, -0.0078125, 0.0781250, -0.0390625, 0.0078125, 0.0546875, -0.0390625, -0.0937500, -0.0468750, 0.0156250, 0.0937500, 0.1171875, 0.0703125, -0.1093750, -0.0312500, 0.0390625, 0.0078125, -0.0937500, -0.0546875, 0.0625000, 0.0156250, 0.0390625, 0.0859375, 0.0625000, -0.0078125, -0.0390625, 0.0312500, 0.1093750, -0.0234375, 0.0546875, 0.0312500, 0.0312500, -0.1015625, -0.0781250, -0.0859375, -0.0390625, 0.0078125, 0.0312500, 0.0546875, 0.0468750, 0.1015625, -0.0312500, -0.1015625, 0.0312500, -0.0234375, 0.1093750, -0.1093750, -0.0312500, 0.0781250, -0.0468750, 0.0390625, -0.0312500, -0.0546875, 0.1093750, 0.0546875, 0.0312500, 0.0000000, -0.0468750, 0.0703125, 0.0078125, -0.0390625, 0.0234375, -0.0234375, -0.0703125, 0.0468750, -0.0234375, 0.0000000, 0.0312500, 0.0937500, -0.0312500, -0.0312500, -0.1171875, -0.0703125, -0.0468750, 0.0078125, -0.0078125, 0.0078125, -0.0234375, -0.0703125, 0.0625000, 0.0312500, -0.0078125, -0.0468750, -0.0625000, 0.0156250, 0.0859375, 0.0078125, 0.0546875, 0.0000000, 0.0703125, -0.0078125, -0.0859375, 0.0312500, 0.0390625, -0.1171875, -0.0625000, 0.1328125, -0.0390625, -0.0703125, -0.0312500, -0.0546875, 0.0078125, 0.0312500, -0.0703125, 0.1015625, -0.0078125, -0.0937500, -0.0703125, 0.0390625, -0.0390625, -0.0390625, 0.1406250, 0.0156250, 0.0156250, -0.0703125, 0.0625000, 0.0234375, 0.0546875, 0.1171875, 0.0156250, -0.0468750, 0.0078125, 0.0703125, 0.0781250, 0.0312500, -0.0156250, -0.1171875, 0.0312500, -0.0390625, 0.0156250, -0.0312500, -0.0078125, 0.1093750, -0.0703125, 0.0000000, 0.0156250, -0.0468750, 0.0781250, -0.1171875, 0.0078125, -0.0156250, 0.0703125, 0.0390625, -0.0156250, -0.0703125, 0.0703125, 0.0000000, -0.0937500, 0.0234375, -0.0781250, 0.0000000, -0.0156250, -0.0781250, 0.0625000, 0.0546875, 0.0781250, 0.0546875, -0.0156250, -0.0156250, 0.0156250, -0.0078125, 0.0312500, 0.0234375, -0.0781250, 0.0156250, -0.0078125, 0.1093750, 0.0390625, -0.0234375, 0.0468750, 0.0234375, -0.0234375, 0.0234375, -0.0078125, 0.0781250, 0.0468750, -0.1015625, 0.0390625, 0.0078125, -0.1171875, 0.0078125, 0.0468750, -0.0078125, 0.0156250, 0.0000000, -0.0390625, 0.0312500, -0.0078125, -0.1093750, 0.1406250, -0.0546875, -0.0156250, -0.0703125, 0.0156250, 0.0312500, 0.0625000, -0.0234375, 0.0625000, 0.0078125, -0.0156250, 0.0468750, 0.0859375, -0.0859375, 0.0234375, 0.0078125, 0.0781250, -0.0390625, 0.0312500, 0.0546875, 0.0781250, 0.0390625, 0.0625000, -0.0703125, 0.0390625, -0.1093750, -0.0781250, 0.0625000, 0.0468750, -0.0390625, -0.0312500, -0.1171875, 0.0390625, 0.0859375, 0.0312500, -0.0546875, -0.0390625, 0.0234375, -0.0156250, 0.1171875, 0.0000000, -0.0781250, -0.0468750, 0.0234375, 0.0546875, -0.0156250, 0.0156250, -0.0156250, -0.0937500, 0.1171875, -0.0078125, 0.0468750, 0.1250000, -0.0937500, -0.0703125, -0.0156250, 0.0078125, -0.0625000, 0.0000000, 0.1015625, -0.0312500, 0.0078125, 0.0078125, 0.0234375, -0.0625000, -0.0156250, 0.0546875, 0.0625000, -0.0781250, -0.0234375, -0.1093750, 0.0468750, -0.0234375, -0.0312500, 0.0859375, 0.0703125, -0.0312500, -0.0078125, -0.0390625, 0.0390625, -0.1093750, 0.0546875, 0.0859375, -0.0234375, -0.0234375, 0.0937500, 0.0703125, 0.0000000, 0.0078125, -0.0859375, -0.1171875, -0.1328125, 0.1015625, 0.0781250, 0.0390625, 0.0156250, 0.0234375, -0.0156250, -0.0468750, 0.0234375, -0.0156250, -0.0546875, 0.0312500, -0.0390625, 0.0390625, 0.0859375, -0.0234375, 0.0000000, -0.1250000, -0.0781250, -0.0625000, 0.0078125, 0.0468750, -0.0937500, -0.0703125, -0.0781250, 0.0000000, 0.1328125, -0.0312500, -0.0234375, -0.0937500, -0.0546875, 0.0078125, -0.0781250, -0.0468750, -0.0078125, 0.0703125, 0.0546875, 0.0390625, 0.0546875, -0.1015625, -0.0156250, -0.0625000, 0.0234375, -0.0625000, 0.0390625, 0.0546875, -0.0078125, 0.0312500, 0.0390625, -0.0937500, 0.1015625, 0.0546875, 0.0781250, -0.0234375, 0.0859375, -0.0390625, 0.0078125, 0.0468750, -0.0312500, 0.0703125, 0.0156250, 0.0937500, 0.0000000, 0.0312500, -0.0546875, 0.0078125, 0.0468750, -0.0781250, -0.0078125, 0.0468750, -0.0390625, -0.0781250, -0.0937500, 0.0156250, 0.0703125, 0.0546875, -0.0156250, -0.0781250, 0.0312500, -0.0234375, -0.0078125, 0.0312500, -0.0156250, 0.1406250, 0.0156250, 0.0468750, 0.0390625, 0.0000000, -0.0937500, 0.0156250, 0.0625000, 0.0000000, 0.0703125, 0.0468750, -0.0468750, 0.1015625, 0.0468750, 0.0546875, 0.0000000, 0.1015625, -0.0312500, 0.0000000, -0.0468750, -0.0156250, 0.0781250, 0.0312500, 0.0234375, 0.0078125, -0.0312500, 0.0468750, 0.0234375, -0.0312500, 0.0781250, 0.0937500, -0.0312500, 0.0312500, 0.0312500, 0.0390625, 0.0546875, 0.0546875, 0.0000000, 0.0000000, -0.0546875, -0.0703125, -0.0312500, -0.0703125, 0.0312500, 0.0859375, 0.0078125, -0.0937500, -0.0859375, -0.0781250, 0.1093750, -0.0859375, 0.0703125, -0.0078125, 0.0312500, -0.0312500, -0.0703125, 0.0000000, -0.0781250, 0.0234375, 0.0078125, 0.0234375, 0.0156250, -0.0625000, -0.1328125, -0.1093750, 0.0468750, -0.0781250, 0.0390625, 0.0390625, -0.0703125, 0.0546875, 0.1015625, 0.0312500, -0.0156250, -0.0078125, -0.0234375, 0.0937500, 0.0000000, -0.0312500, 0.1406250, -0.1406250, -0.0390625, 0.0312500, 0.0078125, 0.0390625, -0.0468750, 0.0078125, -0.0937500, -0.0234375, -0.0546875, 0.0234375, -0.0078125, -0.1171875, 0.0000000, 0.0390625, 0.0703125, -0.0234375, -0.0234375, -0.0312500, 0.0781250, -0.0781250, 0.0234375, -0.0234375, -0.0390625, 0.0234375, 0.0625000, 0.0156250, 0.0000000, -0.0546875, 0.0078125, 0.0156250, 0.0156250, 0.0859375, 0.0234375, -0.1093750, 0.1015625, -0.0703125, 0.0234375, -0.0703125, -0.0078125, 0.0000000, 0.0703125, -0.0390625, -0.0312500, 0.0468750, -0.0078125, 0.0937500, 0.0703125, 0.0078125, -0.0859375, 0.0234375, 0.0312500, 0.0937500, -0.0781250, 0.0234375, -0.0625000, 0.0234375, -0.0859375, -0.0234375, -0.0078125, -0.1093750, 0.0859375, 0.0000000, -0.0937500, -0.0078125, 0.0625000, 0.0156250, 0.0546875, -0.0546875, 0.0546875, 0.0156250, 0.0000000, -0.1250000, 0.0546875, 0.0937500, 0.0546875, 0.0000000, -0.0156250, 0.0078125, -0.0078125, 0.0234375, -0.0781250, -0.0390625, 0.0703125, 0.0234375, 0.1093750, -0.1406250, -0.0703125, 0.0234375, 0.1250000, 0.0000000, 0.0625000, -0.0078125, -0.0546875, -0.0546875, -0.0234375, -0.0234375, 0.0625000, -0.0468750, 0.0625000, 0.0234375, -0.1328125, 0.0625000, 0.1171875, -0.0546875, 0.1093750, 0.0234375, 0.0546875, -0.0156250, -0.0390625, 0.0078125, 0.0000000, 0.0312500, -0.0625000, -0.0390625, -0.0390625, 0.1015625, 0.0937500, 0.0078125, -0.0390625, -0.0625000, 0.0156250, 0.0390625, -0.0390625, -0.0781250, 0.0390625, -0.1250000, 0.0000000, 0.0312500, 0.0000000, 0.0234375, -0.0390625, 0.0312500, -0.0078125, -0.0312500, 0.0390625, -0.0078125, -0.0546875, 0.0078125, 0.0390625, -0.0937500, 0.0000000, -0.0156250, 0.0625000, 0.0156250, -0.1093750, 0.0859375, 0.0546875, -0.0625000, -0.0078125, -0.0312500, 0.0234375, 0.0859375, 0.1250000, 0.0781250, -0.0859375, 0.1250000, 0.0234375, 0.0625000, -0.0390625, 0.0468750, -0.0781250, 0.0234375, 0.0000000, 0.0078125, -0.0390625, 0.0234375, -0.1093750, 0.0312500, -0.0703125, 0.0937500, 0.0312500, 0.0625000, -0.0078125, -0.0859375, 0.0546875, 0.0859375, -0.1093750, -0.0312500, -0.1015625, -0.1015625, 0.0468750, -0.0546875, 0.0390625, 0.0078125, 0.0859375, 0.1406250, -0.0234375, -0.0625000, 0.0000000, 0.0000000, 0.0390625, 0.0937500, -0.0312500, -0.0703125, -0.0156250, 0.0546875, -0.0078125, -0.0078125, -0.0703125, -0.0546875, -0.0859375, 0.0546875, 0.0078125, -0.0468750, 0.0390625, -0.0312500, -0.0468750, 0.1015625, -0.0468750, -0.0078125, -0.0078125, 0.0000000, -0.1093750, 0.0234375, -0.0468750, 0.0234375, 0.0000000, -0.0859375, 0.0156250, 0.1093750, -0.0781250, -0.0781250, -0.0468750, -0.0156250, 0.0390625, 0.0312500, -0.0234375, -0.0156250, 0.0156250, -0.0781250, 0.0625000, -0.0468750, -0.0390625, -0.0625000, -0.0859375, 0.0468750, 0.0859375, -0.0859375, -0.0312500, 0.0390625, 0.0468750, 0.0312500, -0.1015625, 0.0625000, -0.0625000, 0.0625000, 0.1328125, -0.0234375, 0.0000000, 0.0312500, 0.0703125, 0.0234375, -0.0546875, -0.0312500, -0.0546875, -0.0546875, 0.0390625, 0.1015625, 0.1171875, 0.0703125, 0.0468750, 0.0312500, -0.1015625, 0.0000000, -0.0312500, -0.0390625, 0.0703125, 0.0468750, -0.0312500, 0.0078125, -0.0156250, 0.0078125, 0.0390625, 0.0781250, 0.0937500, 0.0625000, -0.0625000, -0.0625000, 0.0078125, -0.0156250, 0.1015625, -0.0312500, 0.1171875, -0.0390625, 0.0937500, -0.0234375, -0.0390625, 0.0156250, -0.0078125, -0.0078125, 0.0234375, 0.0625000, -0.0937500, -0.0312500, -0.1015625, -0.0078125, 0.0468750, -0.0468750, -0.0859375, -0.0078125, 0.0156250, -0.0156250, 0.0468750, -0.0781250, -0.0390625, -0.0156250, 0.0468750, 0.0156250, -0.0312500, -0.0312500, 0.0078125, 0.0312500, 0.0937500, -0.0625000, -0.1171875, 0.0156250, 0.0312500, -0.0703125, 0.0000000, 0.0156250, 0.0000000, 0.0156250, 0.0234375, 0.0000000, 0.0859375, -0.0937500, 0.0468750, 0.0234375, 0.0156250, -0.0312500, -0.0781250, -0.0234375, -0.0078125, 0.1250000, -0.0703125, 0.0000000, 0.0156250, -0.0078125, 0.0078125, -0.0468750, 0.0468750, -0.0468750, 0.0390625, 0.0546875, 0.0312500, -0.0234375, -0.0546875, -0.0859375, -0.0937500, 0.0390625, -0.0312500, -0.0234375, 0.0000000, 0.0546875, -0.0625000, -0.0156250, -0.1015625, 0.0000000, 0.0234375, -0.0156250, 0.0703125, 0.1250000, 0.0625000, 0.0703125, -0.0156250, 0.0781250, 0.1093750, 0.0390625, -0.0234375, -0.0312500, -0.0078125, -0.0078125, -0.1093750, 0.0781250, 0.0781250, -0.0078125, 0.0703125, -0.0468750, 0.0468750, -0.1015625, 0.0703125, -0.1406250, -0.0859375, 0.0468750, -0.0703125, 0.0546875, 0.0156250, 0.0000000, -0.0234375, -0.0078125, -0.0234375, -0.0625000, -0.1250000, -0.1093750, 0.0156250, -0.0703125, -0.0625000, -0.1250000, 0.0234375, -0.0312500, -0.0156250, -0.0390625, 0.0390625, -0.0937500, 0.1171875, 0.0000000, 0.0000000, 0.0703125, -0.0312500, 0.0000000, -0.0234375, 0.0000000, -0.0625000, 0.0546875, 0.1328125, 0.0390625, 0.0078125, -0.0312500, 0.0390625, 0.0390625, 0.1250000, 0.1093750, -0.0156250, -0.0937500, 0.0703125, -0.0781250, 0.0859375, 0.1250000, -0.0703125, -0.0234375, 0.0468750, -0.1093750, -0.0078125, -0.0078125, -0.0156250, -0.1171875, -0.0468750, -0.0781250, -0.0156250, -0.0078125, 0.0312500, 0.0000000, 0.0156250, -0.0078125, -0.0078125, 0.1406250, 0.0781250, 0.0625000, 0.0390625, 0.0000000, -0.0078125, 0.0859375, 0.0703125, 0.0546875, -0.0078125, 0.0781250, -0.1171875, -0.0156250, 0.1093750, 0.0546875, -0.0546875, -0.0625000, 0.0468750, 0.0078125, 0.0546875, 0.0781250, -0.1328125, -0.0703125, -0.0937500, 0.0390625, 0.0703125, 0.0937500, -0.0937500, -0.0859375, -0.0625000, 0.0000000, 0.0000000, 0.0078125, 0.0390625, 0.0234375, 0.0234375, 0.0390625, 0.0546875, 0.1406250, 0.0000000, 0.0312500, -0.0468750, 0.0390625, -0.0468750, 0.0390625, -0.0390625, -0.0078125, 0.0781250, 0.0234375, 0.0625000, 0.0312500, 0.0781250, -0.0781250, -0.0078125, 0.0390625, 0.1093750, -0.0781250, 0.0859375, 0.1093750, 0.0312500, 0.0078125, 0.0546875, 0.0390625, 0.0000000, 0.0937500, -0.0390625, 0.0156250, 0.0078125, -0.0625000, -0.0859375, -0.1250000, 0.0703125, 0.0546875, -0.0156250, 0.0000000, -0.1171875, 0.0937500, 0.1328125, 0.0390625, -0.0078125, 0.0390625, -0.0781250, -0.0156250, 0.0625000, 0.0000000, 0.0312500, 0.0703125, -0.0234375, 0.0468750, 0.0859375, -0.1015625, -0.0390625, -0.0234375, 0.0859375, 0.0000000, 0.0937500, 0.0000000, 0.0312500, -0.1171875, 0.0625000, 0.0546875, 0.0000000, -0.0937500, -0.0390625, -0.1250000, 0.0312500, 0.0625000, 0.0390625, 0.1250000, -0.0390625, 0.0156250, 0.0234375, -0.0390625, -0.0937500, 0.1328125, 0.0546875, 0.0156250, 0.0625000, 0.0859375, 0.0781250, -0.0390625, 0.0468750, -0.0234375, 0.1015625, -0.0468750, 0.0781250, 0.0390625, 0.0234375, -0.0468750, 0.0312500, -0.0234375, -0.0078125, 0.0781250, 0.0234375, 0.0234375, -0.0312500, 0.0000000, -0.0703125, -0.0234375, 0.0156250, 0.0078125, 0.0703125, 0.0546875, 0.0312500, -0.0156250, 0.0703125, 0.0312500, -0.0781250, -0.0703125, 0.0546875, -0.1015625, 0.0234375, 0.0546875, 0.0312500, -0.0312500, -0.0468750, -0.0312500, -0.0859375, 0.0546875, 0.0000000, -0.1171875, -0.0859375, -0.0937500, -0.0546875, -0.0468750, -0.0546875, -0.0234375, 0.0937500, 0.0234375, 0.0000000, -0.0703125, 0.0078125, 0.1328125, 0.0937500, 0.0156250, -0.0234375, 0.1171875, 0.0781250, 0.0546875, 0.0546875, -0.0078125, 0.0468750, 0.0000000, -0.1015625, 0.0390625, 0.0234375, 0.0000000, -0.0781250, 0.0156250, -0.0156250, -0.1015625, -0.0312500, -0.0156250, -0.1015625, 0.0312500, -0.0156250, 0.0937500, -0.0546875, 0.0468750, -0.0234375, -0.0859375, -0.0546875, -0.0937500, 0.0625000, -0.0234375, 0.0703125, -0.1015625, -0.0156250, 0.0390625, 0.0625000, -0.0625000, 0.0156250, 0.1250000, -0.0468750, -0.0312500, 0.0468750, -0.1015625, -0.0703125, 0.0312500, -0.0937500, -0.0625000, -0.0625000, -0.0156250, 0.0312500, -0.0546875, 0.0234375, 0.0703125, 0.0546875, -0.1328125, -0.0078125, 0.0781250, 0.0468750, 0.0312500, 0.0156250, 0.0546875, -0.0625000, 0.0703125, -0.0312500, -0.0546875, -0.1093750, -0.1015625, 0.1250000, 0.0546875, 0.0859375, 0.0468750, 0.1093750, -0.0468750, -0.0078125, 0.0703125, -0.0078125, 0.0625000, -0.0312500, 0.0000000, 0.0312500, -0.0078125, 0.0156250, 0.0312500, 0.0000000, 0.1093750, -0.0156250, 0.0703125, -0.0625000, 0.0234375, 0.0312500, -0.0468750, 0.0703125, -0.0234375, -0.0937500, -0.1250000, -0.0781250, 0.0000000, 0.0468750, 0.0703125, 0.0625000, 0.0625000, -0.0390625, 0.0468750, -0.0078125, 0.0078125, 0.0859375, 0.0000000, -0.0625000, 0.0390625, 0.0546875, 0.0546875, 0.0312500, -0.0390625, -0.0078125, 0.0234375, -0.0390625, -0.0625000, 0.0781250, 0.0234375, -0.0625000, -0.0156250, -0.0156250, -0.0312500, -0.0312500, 0.0390625, -0.0078125, -0.0390625, -0.0312500, 0.0234375, -0.0703125, 0.0156250, 0.0781250, -0.0234375, 0.0156250, -0.0703125, -0.0312500, -0.0234375, -0.0156250, 0.0703125, 0.0156250, 0.0937500, 0.0156250, 0.0156250, -0.0546875, 0.1171875, -0.0468750, 0.0156250, 0.1015625, 0.1250000, -0.1093750, -0.0703125, -0.0546875, 0.0390625, -0.1015625, -0.0312500, 0.0234375, 0.1328125, -0.0390625, 0.0625000, 0.0546875, -0.0234375, -0.0546875, 0.0234375, 0.0468750, -0.0390625, -0.0859375, -0.0625000, -0.0078125, -0.0078125, 0.1171875, 0.0000000, -0.1250000, -0.0312500, 0.0390625, -0.0234375, -0.0781250, 0.0781250, -0.0468750, -0.1015625, -0.0468750, 0.0937500, -0.0703125, 0.0078125, 0.0156250, 0.0625000, -0.0937500, -0.0859375, -0.0390625, -0.0703125, -0.0781250, 0.0234375, -0.0078125, 0.0078125, -0.0078125, -0.0468750, -0.0859375, -0.0546875, 0.0546875, 0.0312500, 0.0546875, -0.0859375, -0.1171875, 0.0703125, -0.0234375, 0.0000000, -0.1328125, 0.0234375, -0.0234375, 0.0937500, -0.0078125, -0.0312500, -0.0078125, 0.0000000, 0.0156250, 0.0312500, -0.0703125, -0.0546875, 0.0000000, 0.0859375, -0.0468750, -0.0234375, 0.0234375, 0.0937500, -0.0234375, 0.0781250, 0.0468750, -0.0546875, -0.0546875, -0.0390625, -0.0078125, 0.0703125, -0.0156250, -0.0546875, 0.0000000, 0.0390625, -0.1250000, 0.0156250, -0.0468750, -0.0156250, 0.0625000, -0.0234375, -0.0312500, -0.0156250, -0.0078125, 0.0546875, 0.0234375, -0.1093750, 0.0468750, -0.0625000, 0.0781250, -0.0625000, 0.1015625, 0.0234375, -0.0781250, -0.0546875, -0.0703125, -0.1250000, 0.0234375, -0.0234375, -0.0078125, -0.0468750, 0.0625000, -0.0937500, -0.0156250, -0.0781250, 0.0078125, 0.0312500, 0.1093750, -0.1015625, -0.0312500, 0.0625000, -0.0546875, 0.0078125, 0.0781250, -0.0625000, 0.0546875, 0.0078125, 0.0703125, -0.0546875, 0.0234375, 0.0703125, 0.0156250, 0.0078125, 0.0390625, 0.0078125, -0.0312500, -0.0312500, 0.0468750, 0.1171875, -0.0859375, -0.0156250, -0.0625000, -0.0468750, 0.0078125, 0.0234375, -0.0468750, 0.0546875, -0.0781250, -0.1250000, -0.1328125, 0.0937500, 0.1328125, -0.0625000, 0.0156250, 0.0312500, -0.0078125, 0.0781250, -0.0390625, -0.0390625, 0.0781250, -0.0703125, 0.1093750, 0.0312500, -0.0781250, -0.0390625, -0.0781250, -0.1250000, 0.0312500, 0.0625000, -0.0156250, 0.0078125, 0.0546875, 0.0234375, -0.0234375, 0.0000000, 0.1328125, -0.0703125, 0.0156250, -0.0156250, -0.0390625, -0.0312500, -0.0781250, 0.0312500, -0.0859375, -0.0546875, 0.0937500, -0.0468750, 0.0546875, -0.0859375, -0.0156250, 0.0078125, -0.0234375, 0.0234375, -0.1171875, -0.0703125, 0.0078125, -0.0390625, 0.0000000, -0.0156250, -0.0937500, -0.0312500, 0.0000000, 0.0390625, 0.0390625, 0.0234375, -0.0234375, -0.0781250, -0.0703125, -0.0234375, 0.0859375, 0.0234375, 0.0390625, 0.0625000, -0.0546875, 0.0234375, 0.0546875, -0.0234375, -0.0781250, -0.0156250, -0.0937500, 0.0625000, -0.1093750, -0.1250000, 0.0156250, -0.0312500, 0.0156250, -0.0312500, 0.0703125, 0.0937500, 0.0390625, 0.0625000, -0.0234375, 0.0078125, 0.1250000, 0.0078125, 0.0078125, 0.0781250, 0.0546875, 0.0625000, 0.0781250, 0.0156250, 0.0468750, -0.0156250, -0.0312500, 0.0468750, 0.0468750, -0.0156250, 0.1406250, 0.0234375, 0.0078125, -0.0937500, 0.1171875, -0.0468750, 0.0781250, -0.0156250, 0.0390625, 0.0937500, -0.0390625, 0.0390625, -0.0234375, 0.0156250, 0.0781250, -0.0781250, -0.0312500, -0.0312500, -0.0468750, -0.0156250, 0.1250000, -0.0078125, 0.1015625, -0.0859375, 0.0000000, -0.0546875, -0.0625000, 0.0078125, -0.0312500, 0.0546875, 0.0390625, -0.0312500, -0.0078125, 0.0312500, 0.1015625, 0.0937500, 0.0625000, -0.0312500, -0.0390625, -0.0156250, 0.0312500, 0.0468750, 0.0468750, -0.0312500, -0.0234375, 0.0078125, -0.0390625, 0.0546875, 0.0156250, -0.1328125, 0.0156250, -0.0078125, -0.0156250, 0.0546875, 0.0390625, 0.0859375, -0.0234375, -0.0859375, 0.0312500, 0.0312500, -0.0703125, 0.0468750, 0.0234375, -0.0234375, 0.0234375, -0.0625000, 0.0468750, 0.0078125, 0.0312500, 0.0468750, 0.0937500, -0.0546875, 0.0000000, -0.1093750, 0.0312500, 0.0625000, 0.1015625, 0.0703125, -0.0625000, -0.0078125, -0.0156250, -0.0546875, -0.0078125, 0.0937500, -0.1015625, 0.0156250, -0.0234375, -0.0625000, 0.0078125, 0.0625000, 0.0781250, 0.0859375, 0.0703125, -0.0078125, 0.0000000, -0.0625000, 0.0156250, -0.1015625, -0.0546875, 0.0312500, 0.0156250, 0.0390625, 0.0156250, -0.0078125, -0.0390625, -0.0078125, 0.0390625, 0.0312500, -0.0234375, -0.1171875, 0.0703125, 0.0312500, -0.0703125, 0.0703125, -0.1015625, 0.0390625, 0.0000000, 0.1171875, 0.0312500, -0.0625000, 0.0000000, -0.1328125, 0.0703125, 0.0937500, 0.0234375, 0.0000000, -0.0546875, -0.0625000, 0.0390625, -0.0312500, 0.0937500, 0.0078125, 0.0703125, 0.0078125, 0.1171875, -0.0859375, -0.0390625, -0.0859375, 0.0078125, 0.0312500, 0.0468750, -0.0937500, -0.0078125, -0.0859375, -0.0234375, 0.0390625, 0.0703125, 0.0078125, -0.0859375, 0.0078125, -0.0703125, -0.1093750, -0.0703125, -0.0937500, -0.0468750, 0.0625000, -0.0937500, -0.0234375, 0.0703125, -0.0078125, -0.0468750, -0.0625000, -0.0156250, -0.0390625, 0.0312500, -0.0078125, -0.1093750, 0.0625000, -0.0078125, -0.0078125, -0.0390625, 0.1328125, 0.1015625, 0.0937500, -0.0312500, -0.0156250, 0.0859375, 0.0859375, 0.1171875, -0.0937500, -0.0546875, 0.0390625, 0.0546875, 0.0156250, -0.0234375, -0.0937500, 0.1328125, -0.0312500, -0.0390625, 0.0546875, -0.0078125, -0.0546875, 0.0859375, 0.0468750, -0.0703125, -0.1328125, 0.0781250, 0.0312500, 0.1015625, -0.0234375, 0.0703125, 0.1250000, -0.0156250, -0.0078125, 0.0078125, 0.0234375, -0.1328125, 0.0078125, 0.0078125, -0.0390625, 0.0312500, -0.0312500, 0.0546875, 0.0703125, 0.0625000, 0.0468750, -0.0625000, -0.0078125, -0.0234375, 0.0546875, 0.0625000, 0.0937500, -0.0937500, 0.0234375, 0.0078125, 0.0000000, 0.1250000, 0.0156250, -0.0468750, 0.0078125, 0.0468750, 0.0937500, 0.1406250, 0.0859375, -0.0781250, -0.0546875, -0.1171875, -0.0390625, -0.1328125, 0.0625000, -0.1015625, 0.0468750, -0.0625000, 0.0625000, 0.0859375, 0.0156250, 0.0625000, -0.0078125, 0.1250000, -0.1171875, -0.0156250, 0.0156250, -0.0625000, -0.0625000, -0.0390625, 0.0625000, -0.0312500, -0.0546875, -0.0468750, 0.0625000, 0.0546875, 0.0390625, 0.0156250, 0.0546875, 0.1015625, 0.0312500, -0.0625000, 0.1250000, 0.1015625, 0.0000000, 0.0546875, -0.0937500, -0.0234375, 0.0546875, 0.0000000, 0.0859375, 0.0468750, -0.0312500, -0.0546875, -0.0468750, 0.0234375, -0.0156250, -0.0234375, -0.0937500, 0.0000000, -0.0625000, 0.0390625, 0.0156250, -0.0078125, -0.0390625, 0.0234375, 0.0859375, -0.0546875, 0.0156250, -0.1015625, 0.0000000, -0.0859375, 0.0468750, -0.0703125, -0.1171875, -0.0312500, -0.1171875, -0.0312500, 0.0468750, 0.1171875, 0.0000000, -0.0156250, -0.0234375, 0.0546875, -0.1250000, 0.0703125, 0.0546875, -0.1015625, 0.0390625, 0.0859375, -0.0312500, -0.0312500, -0.0234375, 0.1015625, -0.0078125, 0.1250000, 0.1015625, 0.1250000, -0.1328125, 0.0312500, -0.0078125, 0.0468750, -0.0625000, -0.0390625, 0.0078125, -0.0546875, 0.0078125, 0.0156250, 0.0703125, 0.0234375, 0.0703125, -0.0234375, -0.0078125, 0.0234375, -0.0078125, -0.0078125, -0.1093750, 0.0703125, 0.1250000, 0.0937500, -0.0390625, 0.0312500, 0.0937500, 0.0000000, 0.0078125, -0.0156250, 0.0703125, 0.0625000, -0.1015625, -0.1171875, 0.0078125, -0.1171875, 0.1093750, -0.0156250, 0.0078125, -0.1328125, -0.0078125, 0.0937500, -0.0390625, -0.0156250, -0.0312500, 0.0703125, -0.0234375, 0.0078125, -0.0312500, -0.0937500, 0.1406250, 0.1250000, 0.0703125, -0.0312500, -0.0625000, 0.1015625, 0.0234375, -0.0312500, -0.1015625, -0.0546875, 0.1015625, 0.0156250, 0.1171875, 0.0468750, 0.1171875, -0.0312500, 0.0937500, -0.0234375, 0.0312500, -0.0703125, 0.1171875, -0.0234375, 0.0156250, 0.0156250, -0.0078125, 0.0390625, -0.0078125, 0.0234375, 0.0234375, 0.0546875, -0.1328125, -0.0078125, 0.0546875, 0.0703125, -0.0937500, -0.0859375, 0.0468750, -0.0234375, 0.0000000, 0.0312500, -0.1250000, -0.0078125, 0.0078125, -0.0312500, -0.0078125, 0.0781250, -0.0312500, -0.0937500, -0.0781250, 0.0234375, 0.0078125, 0.0156250, -0.0625000, 0.1328125, 0.0546875, 0.0781250, 0.0937500, -0.0937500, 0.0781250, 0.0000000, -0.1093750, 0.0078125, 0.0000000, -0.0781250, 0.1093750, -0.0234375, -0.0078125, 0.0234375, 0.0156250, -0.0859375, 0.0000000, -0.0078125, -0.1406250, -0.0234375, 0.0859375, 0.0546875, 0.0234375, -0.0078125, 0.0468750, -0.0703125, -0.0703125, 0.0078125, 0.0234375, -0.0703125, -0.0078125, 0.0000000, -0.0156250, -0.0312500, -0.0156250, -0.0625000, -0.0234375, -0.0156250, 0.0937500, -0.0234375, 0.0156250, 0.0078125, 0.0078125, -0.0781250, -0.0625000, 0.1250000, 0.0000000, -0.0781250, 0.0468750, -0.0781250, 0.1015625, 0.1093750, -0.0625000, 0.0234375, 0.0390625, -0.0078125, -0.0078125, -0.0468750, 0.0312500, -0.0078125, -0.0625000, 0.0703125, -0.0625000, 0.0859375, -0.1015625, 0.0390625, -0.0234375, 0.1015625, -0.0156250, -0.0546875, 0.0468750, 0.0156250, -0.0156250, -0.0546875, 0.0078125, 0.0156250, -0.0312500, -0.1015625, 0.0156250, 0.0703125, -0.0312500, 0.0078125, 0.0625000, -0.0468750, -0.0781250, -0.0234375, -0.0468750, 0.0546875, 0.0078125, -0.0312500, -0.0546875, -0.0312500, -0.0156250, -0.0937500, -0.0546875, -0.0156250, 0.0156250, 0.0234375, -0.0078125, -0.0156250, -0.0390625, 0.0156250, 0.0156250, 0.0000000, 0.0078125, 0.0078125, 0.0078125, -0.0937500, 0.1171875, 0.1093750, -0.0859375, 0.0390625, 0.0078125, 0.0937500, -0.0703125, -0.0156250, 0.0937500, -0.0078125, -0.0781250, 0.0000000, 0.0234375, -0.0078125, 0.0468750, 0.0546875, -0.1328125, 0.0546875, 0.0625000, -0.0468750, 0.0312500, 0.1015625, -0.0156250, 0.0000000, -0.0156250, -0.0312500, -0.0156250, -0.0703125, -0.0625000, 0.0859375, -0.0390625, 0.0390625, 0.0390625, 0.0468750, 0.0078125, 0.0859375, 0.0859375, -0.1015625, -0.0390625, 0.1093750, -0.0078125, -0.0937500, 0.0390625, 0.0156250, 0.0078125, -0.0234375, 0.0000000, -0.0390625, -0.0234375, -0.0625000, 0.0468750, -0.0078125, 0.0078125, -0.0078125, 0.0703125, -0.0312500, -0.0859375, 0.0156250, -0.0234375, 0.0078125, -0.1015625, -0.0234375, 0.0078125, -0.0781250, 0.0390625, -0.1015625, -0.0390625, -0.0234375, -0.0156250, -0.0156250, 0.1171875, -0.0234375, -0.0234375, -0.0234375, 0.0000000, 0.0468750, 0.0546875, -0.1015625, -0.0078125, 0.0312500, 0.0312500, 0.0546875, 0.0000000, 0.1093750, -0.1015625, 0.1171875, -0.0703125, 0.0859375, 0.0078125, 0.0000000, -0.0703125, -0.0078125, -0.0156250, -0.0937500, 0.0781250, 0.0468750, -0.0156250, 0.0000000, 0.0078125, 0.0859375, 0.0000000, 0.0703125, -0.0156250, -0.0546875, -0.0078125, -0.0937500, -0.0703125, -0.0234375, 0.1406250, -0.0390625, 0.0000000, -0.0390625, 0.1015625, 0.0156250, -0.0234375, 0.0000000, 0.0703125, 0.0312500, -0.0390625, -0.0468750, -0.0312500, -0.0312500, 0.0234375, 0.0078125, -0.0234375, -0.0390625, 0.0000000, 0.0390625, -0.1093750, 0.0312500, -0.0859375, 0.0468750, 0.0156250, 0.0234375, 0.0312500, -0.0156250, 0.0468750, 0.0468750, -0.0546875, 0.0546875, -0.0234375, 0.0000000, -0.0781250, -0.0078125, 0.0000000, -0.0234375, 0.0859375, 0.0234375, 0.0078125, -0.0937500, -0.0078125, -0.1015625, 0.0703125, -0.0234375, 0.0000000, 0.0000000, 0.0859375, -0.0468750, 0.0937500, 0.0156250, 0.0234375, 0.0156250, -0.0156250, -0.0390625, 0.0000000, -0.0781250, 0.0390625, -0.0859375, 0.0078125, 0.0937500, -0.1171875, 0.0078125, 0.0234375, 0.0312500, 0.1015625, -0.0078125, 0.1171875, -0.0781250, 0.1015625, -0.1093750, -0.0312500, -0.0468750, -0.0546875, 0.0312500, -0.0937500, -0.1093750, 0.0078125, -0.1093750, -0.0390625, -0.0234375, -0.0078125, -0.1171875, 0.0390625, -0.0468750, -0.0781250, -0.1093750, 0.0859375, -0.0234375, 0.0859375, 0.0390625, -0.1406250, -0.0625000, -0.0937500, 0.0312500, -0.0625000, -0.0625000, 0.1015625, 0.0937500, -0.0156250, -0.0468750, -0.0703125, -0.0703125, 0.0390625, 0.0937500, 0.0546875, -0.0625000, -0.1093750, 0.1093750, -0.1015625, -0.0625000, 0.0625000, -0.0234375, -0.1406250, 0.0078125, 0.0312500, -0.0546875, -0.0234375, -0.0078125, 0.0234375, -0.0546875, 0.0312500, -0.0156250, -0.0234375, 0.0859375, -0.0468750, 0.0078125, -0.0390625, 0.0078125, 0.0859375, -0.0078125, 0.0625000, -0.0312500, -0.0625000, 0.1093750, 0.0000000, -0.0078125, 0.1406250, -0.0625000, 0.0078125, -0.0937500, -0.0078125, 0.0859375, -0.0468750, 0.0156250, -0.0390625, 0.0234375, 0.0703125, 0.0156250, 0.0390625, -0.0781250, -0.0390625, 0.0468750, 0.0546875, 0.0156250, 0.0312500, 0.0781250, 0.1015625, -0.0390625, -0.0781250, -0.0390625, -0.0156250, -0.0390625, -0.1015625, 0.0546875, 0.0937500, -0.0078125, 0.0234375, -0.0937500, -0.0312500, 0.0156250, 0.0546875, 0.0000000, 0.0156250, 0.0625000, -0.0078125, 0.0859375, -0.0703125, 0.1015625, -0.0937500, 0.0078125, 0.0546875, -0.0390625, 0.0625000, 0.0312500, 0.0156250, 0.0625000, -0.0937500, 0.0703125, 0.0000000, -0.0312500, -0.0078125, -0.0703125, 0.0781250, 0.0156250, 0.0234375, 0.0312500, 0.0390625, -0.0859375, -0.0234375, -0.1250000, 0.0078125, -0.0859375, 0.0234375, -0.0390625, -0.0078125, 0.0468750, -0.0546875, 0.0000000, 0.0625000, -0.0390625, -0.0156250, 0.0468750, -0.0937500, 0.0312500, 0.0859375, -0.0781250, 0.0078125, 0.0312500, -0.0156250, -0.0546875, -0.0468750, -0.0234375, -0.0546875, 0.1015625, 0.0312500, 0.0312500, -0.0468750, -0.0156250, 0.1015625, -0.0234375, 0.0703125, 0.0390625, -0.0156250, -0.0078125, 0.0156250, 0.0156250, -0.0156250, 0.0625000, -0.1250000, 0.0000000, -0.0625000, -0.0468750, 0.0781250, -0.1328125, -0.0156250, -0.1015625, -0.0546875, -0.1250000, 0.0156250, 0.0234375, 0.0625000, -0.0468750, 0.0234375, -0.0078125, -0.1328125, 0.0078125, -0.0234375, -0.0859375, 0.0234375, -0.0234375, 0.0703125, -0.0390625, -0.0859375, -0.0312500, -0.0703125, 0.0859375, -0.0234375, -0.1171875, -0.0546875, -0.0234375, -0.0390625, 0.0156250, -0.0546875, -0.1015625, 0.0312500, 0.0156250, -0.0312500, -0.0937500, -0.0078125, -0.0859375, -0.0312500, -0.0390625, -0.0937500, 0.0234375, 0.0078125, 0.0000000, -0.1093750, 0.0078125, -0.0468750, -0.0234375, 0.0625000, -0.1015625, -0.1015625, -0.0937500, -0.0390625, 0.0703125, -0.0781250, -0.0546875, -0.0468750, 0.0390625, -0.0781250, 0.0625000, 0.0234375, 0.0234375, 0.0468750, -0.0234375, -0.0703125, -0.0234375, -0.0156250, 0.0468750, -0.0312500, 0.0000000, -0.0078125, -0.0468750, -0.1015625, -0.0625000, -0.0468750, -0.0703125, -0.0468750, -0.0390625, 0.0234375, -0.0859375, -0.0312500, 0.0390625, 0.0234375, 0.0703125, -0.0156250, 0.0312500, -0.0312500, 0.0625000, 0.0390625, -0.1171875, -0.0781250, -0.0468750, 0.0156250, -0.0781250, -0.0312500, 0.0156250, 0.1328125, -0.0312500, 0.1015625, 0.0234375, 0.1015625, -0.0703125, -0.0156250, 0.0000000, 0.0000000, 0.0859375, 0.0078125, 0.0156250, 0.0156250, -0.1015625, -0.0781250, -0.0703125, 0.0234375, 0.0703125, 0.1250000, 0.0703125, 0.0156250, -0.0234375, -0.0078125, -0.0312500, 0.0156250, -0.0546875, 0.0468750, 0.0546875, 0.0703125, -0.0312500, -0.0625000, -0.0937500, -0.0859375, 0.0156250, -0.0703125, -0.0937500, 0.0000000, -0.1328125, 0.0546875, 0.0234375, 0.0546875, 0.0390625, 0.0000000, 0.0000000, 0.0390625, 0.0312500, -0.0234375, -0.0078125, -0.0703125, 0.0234375, 0.0312500, 0.0468750, -0.0312500, -0.0234375, -0.0781250, -0.0156250, -0.0781250, 0.0078125, -0.0703125, -0.1171875, -0.0234375, -0.1093750, -0.0156250, -0.0937500, -0.1328125, -0.0625000, -0.1093750, -0.0468750, -0.0312500, 0.0234375, -0.0468750, 0.0468750, -0.0703125, -0.0546875, 0.0000000, -0.0234375, 0.0312500, 0.0078125, 0.0156250, 0.1093750, 0.0937500, -0.0312500, -0.0156250, -0.0234375, 0.0000000, -0.0234375, 0.0859375, -0.1015625, -0.0625000, -0.0937500, 0.0937500, 0.0390625, -0.0078125, 0.0781250, -0.0625000, 0.0390625, 0.1328125, -0.0234375, -0.0859375, -0.0234375, -0.0703125, 0.0390625, 0.0859375, 0.0078125, -0.0312500, 0.0000000, -0.1093750, -0.0390625, -0.0312500, -0.0234375, -0.0468750, -0.0156250, -0.0312500, -0.0078125, 0.0234375, -0.0703125, 0.0000000, 0.0000000, 0.0625000, -0.1015625, -0.0312500, 0.0781250, 0.0703125, 0.0312500, -0.1250000, -0.0390625, 0.0859375, -0.0468750, -0.0781250, -0.0390625, -0.0937500, -0.0546875, -0.0234375, -0.0625000, 0.0234375, 0.0390625, -0.0312500, 0.0781250, 0.0000000, -0.0625000, -0.0781250, 0.0312500, 0.0859375, -0.0781250, 0.0234375, 0.0781250, 0.0078125, 0.0546875, 0.0312500, -0.0234375, 0.0312500, -0.1015625, 0.0312500, -0.0546875, 0.1015625, 0.1171875, 0.1093750, -0.1328125, -0.0625000, -0.0078125, -0.1093750, -0.0390625, -0.0859375, -0.0312500, -0.0546875, -0.1406250, 0.0234375, 0.0078125, -0.0703125, 0.0156250, -0.0234375, 0.1171875, -0.0234375, -0.0546875, 0.0312500, -0.0546875, 0.0156250, -0.0156250, -0.0312500, 0.0625000, 0.0625000, 0.0234375, -0.0468750, -0.0859375, 0.0703125, 0.0390625, 0.1093750, 0.0859375, -0.0781250, -0.1093750, -0.0859375, 0.0000000, -0.0546875, 0.0703125, -0.0078125, 0.0625000, -0.0546875, 0.0625000, -0.0468750, -0.1250000, 0.0234375, 0.0468750, 0.0078125, 0.0156250, 0.0703125, -0.0234375, 0.0000000, 0.0312500, 0.0390625, -0.0546875, -0.1250000, 0.0468750, -0.0234375, 0.0468750, -0.0625000, 0.0937500, -0.0468750, 0.0000000, 0.0625000, -0.1250000, 0.0078125, 0.0156250, 0.0390625, 0.0703125, 0.1093750, -0.0234375, 0.0390625, 0.0156250, -0.0312500, -0.0312500, 0.0156250, 0.0546875, -0.0312500, 0.0000000, 0.0468750, 0.1171875, 0.0937500, -0.1093750, 0.0390625, 0.0781250, -0.0625000, 0.1171875, 0.0546875, -0.0781250, 0.0156250, -0.0625000, -0.0234375, -0.0468750, -0.0546875, -0.0312500, 0.0078125, -0.1328125, -0.0468750, 0.0859375, -0.0625000, -0.0390625, 0.1093750, 0.1328125, 0.0078125, -0.0703125, -0.1093750, -0.0625000, 0.0234375, -0.1171875, -0.0078125, -0.0468750, -0.0703125, -0.0390625, -0.0078125, -0.0703125, 0.1015625, -0.0312500, 0.0625000, 0.0156250, -0.0546875, 0.1406250, -0.0078125, 0.0234375, 0.0781250, 0.1328125, 0.0156250, -0.0703125, -0.0546875, -0.1093750, -0.0937500, 0.0546875, -0.0468750, -0.0078125, 0.0703125, -0.0546875, 0.1093750, 0.0156250, -0.0703125, -0.0546875, -0.0390625, 0.0390625, 0.0937500, -0.0546875, -0.0625000, -0.0234375, -0.0390625, -0.0156250, -0.0078125, -0.0546875, 0.0859375, 0.1328125, -0.0859375, -0.0390625, 0.0156250, 0.0546875, 0.0390625, 0.0468750, -0.0312500, 0.0234375, 0.0859375, -0.0703125, -0.0312500, 0.0625000, 0.0234375, 0.0625000, 0.0000000, -0.0078125, -0.0859375, -0.0156250, -0.0390625, 0.0546875, -0.1406250, 0.0156250, 0.0468750, -0.0546875, 0.0781250, 0.0312500, 0.1093750, -0.0078125, -0.0859375, 0.0078125, 0.0078125, 0.0781250, 0.0156250, 0.0312500, -0.0234375, 0.0156250, 0.0390625, 0.0312500, -0.0859375, -0.0156250, -0.0546875, -0.0078125, -0.0156250, 0.0078125, 0.0390625, 0.0078125, -0.1328125, -0.1328125, 0.1328125, 0.0156250, -0.0546875, 0.0390625, 0.0312500, -0.0156250, -0.0937500, -0.0390625, 0.0546875, -0.0156250, 0.0312500, 0.1250000, 0.0000000, 0.0468750, -0.0468750, 0.0234375, 0.0625000, 0.0156250, 0.0859375, 0.0234375, -0.0546875, 0.0156250, 0.1093750, -0.0078125, -0.0546875, -0.0859375, 0.0781250, 0.0546875, 0.0468750, 0.0468750, 0.0625000, 0.0078125, -0.1093750, 0.0781250, 0.0625000, 0.0312500, -0.0078125, -0.0234375, -0.1171875, -0.0078125, -0.0468750, -0.1328125, 0.0156250, 0.1093750, -0.0468750, 0.0078125, 0.0390625, 0.0546875, 0.0781250, 0.1015625, -0.0859375, -0.0703125, -0.1015625, -0.0546875, -0.0859375, -0.0859375, -0.0156250, 0.0468750, -0.0390625, -0.0546875, 0.0781250, -0.1093750, -0.1093750, -0.0468750, 0.0234375, 0.0312500, 0.0781250, -0.1171875, 0.0078125, -0.0625000, -0.0468750, 0.0781250, 0.0234375, -0.0468750, 0.1015625, -0.1171875, 0.0078125, 0.0625000, 0.0625000, -0.0703125, -0.0468750, -0.0390625, -0.0625000, 0.0000000, 0.0468750, -0.0234375, 0.0937500, 0.0937500, 0.1093750, 0.1406250, 0.0156250, 0.0625000, 0.0390625, 0.0156250, -0.0156250, -0.0781250, -0.0546875, 0.0546875, 0.0546875, -0.0078125, -0.0078125, 0.0234375, 0.1250000, -0.0234375, -0.1250000, -0.0546875, 0.0546875, -0.0234375, -0.1093750, -0.0468750, -0.0234375, 0.0312500, 0.0859375, 0.0234375, -0.0156250, 0.0468750, 0.0859375, 0.0859375, 0.0312500, -0.0546875, -0.0078125, -0.0546875, 0.0078125, -0.1093750, -0.0078125, 0.0078125, 0.0703125, -0.0468750, 0.0078125, -0.0859375, 0.0390625, -0.0078125, 0.0234375, -0.0234375, 0.0234375, 0.0468750, 0.0468750, 0.0000000, 0.0156250, -0.0625000, 0.0078125, 0.0546875, -0.1171875, -0.0234375, 0.0859375, 0.0703125, -0.0781250, 0.0703125, -0.0078125, 0.0234375, 0.1328125, -0.1093750, 0.0546875, 0.0468750, 0.0078125, 0.0390625, -0.0703125, 0.0703125, 0.0390625, -0.1171875, -0.0937500, 0.0546875, 0.0000000, 0.0546875, 0.0312500, 0.0000000, 0.0078125, 0.0781250, -0.1250000, 0.1015625, -0.0781250, -0.0390625, -0.0078125, -0.0937500, -0.0703125, -0.0078125, 0.0000000, -0.1250000, 0.0859375, -0.0078125, 0.0312500, 0.0078125, -0.0781250, -0.0468750, 0.0546875, -0.1171875, -0.0703125, 0.1250000, -0.0625000, 0.0234375, 0.0703125, -0.0546875, 0.0234375, -0.0234375, -0.0156250, 0.0234375, 0.0078125, 0.0625000, -0.1093750, -0.1015625, 0.0234375, 0.0156250, 0.0859375, 0.0703125, 0.0078125, 0.0234375, 0.1171875, 0.0625000, -0.0078125, -0.1328125, 0.1015625, 0.0781250, 0.0546875, -0.0468750, -0.0234375, 0.0312500, 0.0937500, 0.0546875, 0.0000000, -0.0468750, 0.1015625, 0.0156250, -0.0390625, -0.0078125, -0.0312500, -0.0390625, 0.0234375, 0.0078125, 0.0234375, -0.0546875, 0.0781250, 0.0078125, -0.0468750, 0.0937500, 0.0546875, -0.0781250, 0.0390625, 0.0156250, 0.0703125, 0.0390625, 0.0390625, 0.0312500, -0.0937500, 0.0468750, 0.0546875, -0.1015625, 0.0312500, 0.0312500, -0.0625000, -0.0312500, 0.0937500, -0.0390625, 0.1171875, -0.0468750, -0.0859375, -0.1093750, 0.0078125, 0.0703125, -0.0156250, 0.0000000, -0.0859375, 0.0312500, -0.0390625, 0.0781250, 0.0156250, 0.0234375, -0.0546875, -0.0625000, 0.0625000, 0.0156250, -0.0546875, 0.0078125, -0.0468750, -0.0546875, -0.0156250, 0.0468750, -0.0156250, 0.1250000, -0.0546875, -0.0234375, 0.1250000, -0.0859375, 0.0390625, 0.0703125, -0.0468750, -0.0468750, 0.0078125, -0.1250000, -0.1171875, 0.0625000, -0.0234375, 0.1015625, 0.0781250, 0.0000000, 0.0078125, -0.0234375, 0.0781250, -0.0937500, 0.0937500, 0.0781250, 0.0390625, 0.1328125, -0.0234375, 0.0234375, 0.0000000, 0.0625000, -0.0859375, 0.0000000, -0.0078125, -0.0625000, 0.1171875, -0.0390625, -0.0625000, 0.0156250, -0.1015625, 0.0078125, 0.0156250, 0.0312500, 0.0859375, 0.0546875, -0.0078125, 0.1093750, 0.0312500, 0.0156250, -0.1015625, 0.0156250, 0.0234375, 0.0156250, 0.0078125, 0.0937500, 0.0078125, 0.0781250, -0.0312500, 0.1328125, -0.0390625, -0.0546875, -0.0078125, -0.0859375, 0.0703125, 0.0625000, 0.0390625, -0.0156250, 0.0156250, -0.0468750, -0.0625000, -0.0156250, 0.0625000, 0.0625000, -0.0312500, -0.0156250, -0.0312500, -0.0390625, 0.0625000, 0.0390625, 0.0390625, -0.0234375, 0.0937500, -0.0312500, -0.0859375, 0.0390625, -0.0468750, -0.1250000, 0.1093750, 0.0781250, -0.1015625, -0.0312500, -0.0312500, 0.0546875, 0.0234375, -0.0781250, 0.0078125, 0.0781250, -0.1250000, -0.0625000, -0.1328125, 0.0546875, -0.0859375, 0.0234375, 0.0468750, 0.1015625, -0.0390625, 0.0000000, -0.0156250, -0.0078125, -0.0781250, -0.0156250, -0.0781250, -0.0078125, -0.0234375, 0.0312500, -0.0312500, 0.0625000, -0.0312500, -0.0546875, -0.0156250, 0.0078125, 0.1093750, 0.0546875, -0.0546875, -0.0312500, -0.1015625, 0.1328125, -0.0078125, 0.0312500, -0.0937500, 0.0703125, -0.0156250, -0.0390625, -0.0312500, -0.0390625, 0.0078125, -0.0312500, -0.0625000, -0.0312500, -0.0468750, 0.0625000, 0.1250000, 0.0546875, 0.0156250, -0.0390625, -0.0312500, 0.0937500, -0.0156250, 0.0468750, 0.0000000, -0.0625000, -0.0390625, 0.0156250, -0.0703125, 0.0468750, 0.0625000, -0.0312500, 0.0000000, 0.0468750, 0.0234375, 0.0312500, -0.0859375, 0.1406250, -0.0078125, -0.0859375, -0.0781250, 0.0156250, 0.0156250, -0.0859375, 0.0390625, 0.0078125, -0.0156250, 0.0625000, -0.0312500, 0.0312500, 0.0859375, -0.0781250, -0.0468750, 0.1093750, 0.1093750, -0.0546875, 0.0390625, -0.1015625, 0.0703125, 0.0312500, 0.0937500, -0.0312500, 0.0781250, -0.0234375, 0.0468750, 0.0546875, 0.0078125, 0.0234375, 0.0468750, 0.0468750, -0.0390625, -0.0390625, 0.0312500, 0.0156250, 0.1015625, -0.0312500, -0.0156250, -0.0390625, -0.0859375, -0.0234375, 0.1015625, 0.0937500, 0.1250000, 0.0937500, 0.0156250, 0.0078125, -0.0234375, -0.1015625, -0.0156250, -0.0859375, 0.0156250, -0.0625000, 0.0781250, -0.0078125, -0.0546875, 0.0000000, 0.0156250, 0.0703125, 0.0156250, -0.0312500, -0.0390625, -0.0390625, -0.0312500, 0.0078125, 0.0078125, 0.1015625, 0.0000000, -0.0859375, 0.0468750, 0.0312500, 0.0312500, -0.0625000, -0.0156250, -0.0156250, -0.0078125, 0.0078125, 0.0312500, 0.0000000, 0.0078125, -0.0156250, -0.1250000, 0.0000000, 0.0390625, 0.0625000, 0.1093750, 0.0781250, -0.0859375, -0.0078125, -0.0078125, 0.0234375, -0.0937500, -0.0390625, -0.0937500, 0.0625000, 0.0234375, 0.1093750, 0.0390625, 0.0781250, 0.0312500, 0.0000000, -0.0312500, -0.0156250, -0.0546875, 0.0390625, -0.0781250, 0.0078125, 0.0546875, 0.1171875, 0.1250000, 0.0312500, 0.0468750, 0.0468750, 0.0546875, -0.0390625, 0.0156250, -0.0390625, 0.0468750, 0.0156250, -0.0156250, 0.0468750, -0.0156250, -0.0234375, -0.0234375, -0.0859375, 0.0078125, -0.0781250, -0.0156250, -0.0625000, -0.0312500, 0.0703125, -0.0312500, -0.0234375, -0.1406250, -0.0156250, 0.0234375, -0.0390625, -0.0703125, 0.0625000, -0.0390625, 0.0390625, 0.1015625, -0.0390625, -0.0234375, 0.0390625, 0.1171875, 0.0234375, 0.0781250, -0.0937500, 0.0937500, -0.0703125, -0.0312500, 0.0390625, 0.0625000, 0.0625000, 0.0468750, 0.0312500, 0.1171875, -0.0234375, 0.0859375, -0.1015625, -0.1171875, -0.0390625, 0.0390625, 0.0546875, 0.1015625, -0.0468750, 0.0859375, -0.0625000, -0.0546875, 0.0000000, 0.0625000, 0.0234375, -0.0156250, 0.1015625, -0.0937500, -0.0078125, -0.0703125, 0.0546875, 0.0312500, -0.0312500, -0.0234375, -0.0390625, 0.0312500, -0.0390625, 0.0000000, 0.0468750, -0.0312500, -0.0468750, 0.0234375, -0.0390625, -0.0625000, 0.0546875, 0.1093750, -0.1093750, 0.0781250, 0.0312500, -0.0625000, -0.0234375, 0.0078125, 0.1171875, -0.0546875, -0.0078125, 0.0781250, -0.0156250, -0.0781250, 0.1171875, 0.0000000, -0.0078125, 0.0468750, 0.0390625, -0.1171875, 0.0234375, 0.0078125, 0.1093750, 0.0390625, 0.0625000, -0.0781250, 0.0781250, -0.0625000, 0.0312500, -0.0546875, 0.0234375, 0.1015625, 0.0000000, 0.1250000, 0.0390625, 0.1015625, 0.1015625, -0.0703125, -0.0859375, -0.0625000, -0.0390625, -0.0234375, -0.0078125, -0.0937500, 0.0703125, -0.1171875, -0.0234375, 0.0000000, -0.0312500, 0.0234375, 0.0234375, -0.0234375, -0.0312500, -0.0859375, 0.0625000, 0.1015625, 0.0312500, -0.0078125, 0.0390625, 0.0312500, 0.0625000, 0.0312500, 0.0703125, 0.0312500, -0.1328125, -0.1171875, 0.0234375, -0.1093750, -0.0312500, 0.1250000, 0.0468750, 0.0390625, 0.1328125, 0.1171875, 0.0625000, -0.0546875, -0.1171875, -0.0703125, 0.0078125, 0.1015625, -0.0468750, -0.1015625, 0.0859375, -0.0312500, -0.0781250, -0.0312500, -0.0546875, 0.0859375, -0.0390625, 0.0703125, -0.0937500, 0.0156250, -0.0468750, 0.0468750, 0.1015625, 0.0156250, 0.1015625, -0.0468750, 0.0234375, 0.0312500, 0.0625000, -0.0703125, 0.0468750, 0.0468750, 0.0156250, 0.1406250, 0.0156250, 0.0703125, 0.1250000, -0.0312500, 0.0546875, 0.1093750, 0.0703125, 0.0703125, 0.0234375, -0.0078125, -0.1015625, -0.0234375, 0.0234375, 0.0546875, 0.0468750, -0.0625000, 0.0156250, 0.0859375, 0.0625000, -0.0390625, 0.0156250, -0.0625000, -0.0546875, -0.0546875, 0.0312500, -0.0234375, -0.0078125, -0.0312500, 0.0390625, -0.0390625, -0.0156250, 0.0703125, 0.0468750, -0.0234375, 0.0234375, -0.0859375, -0.0546875, -0.0078125, -0.0546875, 0.0000000, -0.0937500, -0.0078125, 0.0078125, 0.0078125, -0.0390625, -0.0781250, 0.0000000, 0.0859375, -0.0312500, -0.1093750, -0.0234375, 0.1406250, 0.1250000, -0.0156250, 0.0312500, 0.1328125, 0.0312500, -0.0390625, 0.0312500, -0.0703125, 0.0000000, -0.0078125, 0.0312500, -0.0312500, 0.0078125, 0.0000000, 0.0703125, -0.1093750, 0.0390625, 0.0937500, 0.0234375, -0.0078125, 0.0000000, 0.0546875, -0.0625000, 0.0078125, 0.1093750, -0.0625000, -0.0078125, 0.0390625, -0.0078125, 0.1250000, 0.0156250, -0.0156250, 0.0312500, 0.0468750, -0.0937500, 0.0390625, 0.0000000, -0.0703125, 0.0546875, 0.0781250, 0.1328125, -0.0078125, -0.0156250, 0.0156250, -0.0312500, 0.0312500, -0.0078125, 0.0390625, -0.0937500, -0.0859375, -0.0546875, 0.0078125, -0.0546875, 0.0468750, -0.0859375, -0.0234375, -0.0781250, -0.0156250, -0.0078125, -0.0234375, 0.0234375, 0.0546875, 0.0937500, 0.0078125, -0.0234375, -0.0234375, 0.0390625, 0.0000000, 0.0234375, 0.0000000, 0.0000000, 0.0937500, 0.0078125, 0.1015625, -0.0468750, 0.0000000, -0.0234375, 0.0156250, -0.0078125, -0.1250000, -0.1406250, -0.0546875, -0.0546875, 0.1328125, -0.0625000, 0.1093750, 0.0234375, -0.0468750, -0.0468750, 0.1328125, 0.0781250, -0.0234375, 0.0390625, 0.0468750, 0.0312500, 0.0312500, -0.0390625, -0.0390625, 0.0156250, 0.0234375, 0.0390625, -0.1250000, 0.0078125, 0.0312500, -0.0625000, -0.0078125, 0.1406250, -0.0078125, -0.0625000, 0.1328125, 0.0234375, -0.0546875, 0.0156250, 0.0078125, 0.0468750, -0.0156250, -0.0390625, 0.1015625, -0.1015625, -0.0390625, 0.0625000, -0.1015625, -0.0625000, 0.0468750, -0.0546875, -0.0156250, 0.0000000, -0.1015625, -0.0312500, -0.0312500, 0.0078125, -0.0625000, -0.0703125, -0.0234375, 0.0703125, -0.0312500, 0.0156250, 0.1250000, -0.0625000, 0.1406250, 0.0625000, -0.0625000, 0.0312500, 0.0546875, 0.0781250, 0.0546875, 0.0078125, 0.0156250, -0.0937500, 0.0000000, 0.1171875, 0.0390625, -0.0625000, 0.0156250, 0.0390625, -0.0859375, -0.0156250, -0.0390625, -0.0234375, 0.0546875, -0.0078125, -0.0078125, 0.0546875, 0.0234375, 0.0156250, -0.1015625, 0.0937500, 0.1015625, -0.0781250, -0.0468750, -0.0078125, 0.1093750, -0.0390625, 0.0312500, -0.1093750, -0.0468750, 0.0312500, -0.0234375, -0.0859375, -0.0390625, -0.0625000, -0.0234375, -0.0156250, 0.0234375, 0.0234375, 0.0937500, 0.0781250, -0.0468750, 0.0000000, 0.0937500, 0.0937500, -0.0546875, -0.1093750, -0.1328125, 0.0078125, 0.0078125, -0.0781250, 0.0859375, -0.0234375, 0.1328125, 0.0781250, -0.0156250, 0.0703125, -0.0625000, 0.0234375, 0.0234375, 0.0312500, 0.0546875, -0.0703125, 0.0078125, 0.0234375, 0.0625000, -0.0390625, 0.0390625, 0.0000000, -0.0312500, 0.0703125, 0.0390625, -0.0078125, 0.0156250, -0.0234375, 0.0781250, -0.0312500, 0.1171875, -0.0468750, 0.0546875, -0.0312500, -0.1406250, 0.0078125, 0.0234375, -0.0937500, -0.0859375, 0.0703125, 0.0234375, 0.0312500, -0.1093750, 0.0390625, -0.0078125, -0.0468750, -0.0703125, -0.0546875, 0.0703125, -0.0156250, 0.0625000, 0.0000000, 0.0234375, 0.0156250, -0.1093750, 0.0000000, 0.0468750, 0.0859375, -0.0703125, -0.0156250, 0.0859375, -0.0546875, 0.0000000, 0.0078125, 0.0234375, -0.0078125, 0.0859375, -0.0703125, 0.0312500, 0.0937500, 0.0390625, 0.0234375, -0.0703125, 0.0156250, 0.0781250, 0.0937500, 0.0312500, -0.0156250, -0.0781250, -0.0312500, -0.0703125, 0.0390625, -0.0703125, -0.0234375, 0.0546875, -0.0156250, 0.0859375, -0.1250000, 0.0156250, 0.0390625, 0.0468750, -0.0781250, -0.0390625, -0.1171875, -0.0468750, 0.0234375, 0.1328125, 0.0546875, -0.0312500, 0.0859375, 0.1093750, -0.0156250, 0.1093750, -0.0625000, 0.1328125, -0.0234375, -0.0703125, -0.0078125, -0.0390625, 0.0156250, -0.0937500, -0.1250000, 0.0000000, 0.0390625, 0.1093750, -0.1250000, 0.0312500, 0.0078125, 0.0000000, 0.0468750, -0.0390625, 0.0703125, 0.0078125, -0.0312500, -0.0859375, -0.0468750, -0.0546875, 0.0000000, 0.0546875, 0.0078125, -0.0781250, 0.0703125, 0.0156250, 0.0468750, 0.0000000, 0.0546875, -0.1406250, -0.0312500, -0.0781250, -0.0390625, -0.0703125, -0.0234375, 0.1250000, -0.0937500, -0.0781250, 0.1015625, 0.0703125, -0.1171875, -0.0312500, 0.0234375, 0.0468750, 0.0000000, -0.0390625, 0.1171875, 0.1171875, -0.0390625, -0.0468750, -0.0234375, 0.0859375, -0.0859375, -0.0390625, 0.0703125, -0.1328125, 0.0234375, 0.0234375, -0.0546875, -0.0156250, 0.0078125, -0.0156250, -0.0234375, 0.0234375, 0.0625000, -0.0078125, 0.0390625, -0.0468750, 0.0937500, -0.0234375, 0.0312500, 0.0859375, 0.0234375, 0.0781250, 0.0546875, 0.0312500, -0.0234375, 0.0000000, -0.1328125, 0.0625000, -0.0078125, -0.0625000, 0.0234375, 0.0703125, -0.0390625, 0.0625000, 0.0390625, -0.0468750, -0.0390625, -0.0546875, 0.0937500, 0.0234375, 0.0156250, -0.0781250, 0.0156250, 0.0390625, 0.0000000, 0.0625000, 0.0468750, 0.0781250, 0.0703125, 0.0156250, -0.0625000, -0.1015625, -0.0156250, 0.0000000, 0.0390625, -0.0859375, 0.0234375, -0.0234375, -0.0937500, 0.1015625, -0.0625000, 0.0546875, -0.1328125, -0.0156250, -0.0546875, 0.0781250, 0.0546875, -0.1093750, 0.0390625, 0.0156250, -0.1328125, 0.0468750, -0.0312500, -0.0703125, -0.0390625, 0.0234375, -0.1015625, -0.0546875, 0.0234375, -0.0156250, -0.0312500, -0.0234375, 0.0625000, 0.0078125, -0.0390625, -0.0156250, -0.1250000, -0.0781250, 0.0390625, -0.0468750, -0.0546875, -0.0390625, 0.1328125, -0.0156250, -0.0625000, -0.0390625, -0.1328125, 0.0625000, -0.0781250, -0.0312500, 0.0234375, 0.0078125, 0.0546875, 0.0390625, -0.0781250, 0.0625000, -0.0781250, -0.1328125, -0.0312500, 0.0312500, 0.0468750, 0.1171875, 0.1171875, 0.0078125, 0.0156250, 0.0703125, 0.0000000, 0.0312500, -0.0234375, 0.0234375, 0.0078125, -0.0859375, -0.0468750, -0.0859375, -0.0390625, -0.0078125, 0.1328125, -0.1093750, -0.0781250, -0.1171875, 0.0625000, 0.0000000, 0.0468750, -0.0234375, -0.0937500, 0.0000000, -0.0625000, 0.1015625, 0.0546875, 0.0312500, -0.0234375, -0.0859375, 0.0156250, -0.0078125, -0.0468750, 0.0859375, 0.0156250, -0.0859375, 0.0234375, -0.0468750, -0.0234375, 0.0078125, 0.0625000, 0.0703125, 0.0781250, 0.0312500, 0.0390625, 0.0703125, 0.0156250, -0.0312500, -0.0078125, 0.0468750, 0.1406250, 0.0156250, 0.0234375, 0.0625000, 0.0937500, -0.0546875, 0.0156250, 0.0078125, -0.0078125, 0.0156250, 0.0703125, 0.0156250, 0.0234375, -0.0312500, 0.0390625, -0.0859375, -0.0703125, -0.0937500, 0.0625000, 0.0000000, 0.0078125, 0.1171875, 0.0156250, -0.0078125, -0.0468750, 0.0781250, 0.0234375, 0.0781250, 0.0703125, -0.0234375, -0.1328125, 0.0859375, 0.0312500, -0.0625000, -0.0390625, 0.1171875, 0.0078125, 0.1171875, 0.0078125, 0.0234375, 0.0859375, -0.0078125, -0.0234375, 0.0390625, 0.0078125, -0.0078125, 0.0937500, 0.0078125, -0.0234375, -0.0859375, 0.0078125, 0.0468750, 0.0781250, 0.0156250, -0.0546875, -0.1171875, -0.0781250, -0.0390625, -0.0625000, 0.1093750, -0.0625000, 0.0000000, 0.0000000, -0.0234375, -0.0546875, 0.0156250, -0.0468750, 0.0234375, -0.0468750, -0.0546875, -0.0468750, 0.1328125, 0.0312500, -0.0468750, 0.1171875, 0.0000000, 0.0937500, 0.0546875, -0.0156250, -0.0625000, -0.0859375, 0.0312500, 0.0703125, 0.0390625, -0.0156250, -0.0546875, -0.0546875, -0.1015625, 0.0937500, 0.1171875, -0.0625000, 0.0390625, -0.1250000, 0.0000000, -0.0546875, 0.0859375, 0.0546875, -0.0156250, -0.0468750, -0.1171875, -0.0312500, 0.0312500, -0.0703125, 0.1250000, -0.0156250, 0.0234375, 0.0781250, -0.0937500, -0.0781250, 0.0937500, -0.1015625, 0.0234375, -0.0625000, -0.0078125, -0.1406250, 0.0468750, -0.0234375, -0.1015625, -0.0312500, -0.0234375, 0.0390625, 0.0312500, -0.0390625, 0.0000000, 0.0390625, 0.1093750, 0.0468750, 0.0312500, -0.0312500, 0.0859375, -0.0468750, 0.0000000, -0.0625000, 0.0859375, 0.1093750, -0.0859375, 0.1406250, -0.0937500, -0.0312500, 0.0156250, -0.0390625, -0.0312500, -0.0312500, -0.1328125, 0.0468750, -0.0234375, -0.0390625, -0.0234375, 0.1093750, 0.0625000, 0.0468750, 0.0781250, -0.0312500, -0.0546875, 0.0546875, 0.0937500, -0.0312500, 0.0234375, 0.0156250, 0.0546875, -0.0781250, -0.0703125, 0.0312500, 0.0000000, -0.0468750, 0.1250000, 0.0156250, -0.0859375, -0.0078125, 0.0703125, -0.0390625, -0.0390625, -0.0937500, 0.0078125, 0.0156250, 0.0703125, 0.0156250, -0.0781250, -0.0156250, 0.0234375, 0.0937500, -0.0859375, -0.0312500, 0.0156250, 0.0390625, -0.1015625, 0.0312500, -0.0468750, -0.0156250, -0.0468750, 0.0703125, -0.0703125, -0.0703125, -0.0312500, 0.0234375, 0.0156250, 0.0546875, 0.0312500, 0.1250000, -0.0078125, -0.0781250, -0.0781250, -0.1015625, 0.0000000, 0.0234375, -0.0703125, 0.0156250, 0.0781250, 0.0625000, -0.0390625, -0.0703125, -0.0937500, -0.0390625, 0.0234375, -0.0390625, -0.0468750, 0.0000000, -0.0078125, -0.0546875, 0.0625000, 0.0156250, -0.0703125, 0.0078125, 0.0078125, 0.0078125, -0.0156250, -0.0781250, 0.1250000, 0.0468750, -0.0078125, -0.0546875, 0.0859375, -0.0234375, 0.0000000, -0.0234375, -0.0468750, 0.0781250, -0.0546875, -0.0625000, 0.0312500, 0.0000000, 0.0234375, -0.0234375, -0.0156250, -0.0546875, -0.0546875, -0.1093750, -0.0234375, 0.0156250, 0.0390625, 0.0000000, 0.0546875, -0.0703125, -0.0468750, -0.0078125, -0.1093750, -0.0781250, 0.0234375, 0.0390625, -0.0234375, -0.0156250, 0.0468750, -0.0156250, 0.0546875, 0.0000000, 0.0625000, 0.0625000, 0.0000000, -0.0234375, 0.0625000, -0.0468750, -0.0312500, -0.0078125, -0.0703125, -0.0234375, -0.0625000, 0.0234375, -0.1093750, -0.0234375, -0.0312500, 0.0937500, 0.0390625, 0.0312500, -0.0937500, 0.1093750, 0.0000000, -0.0703125, -0.0546875, -0.0546875, -0.0781250, -0.0546875, -0.0156250, 0.0859375, 0.1171875, -0.0234375, 0.1406250, 0.0468750, 0.1093750, -0.1171875, 0.0156250, -0.0937500, 0.0390625, 0.0000000, -0.0703125, -0.1093750, 0.0390625, -0.0312500, 0.0312500, 0.0000000, 0.1093750, -0.0078125, 0.0312500, -0.0703125, 0.0781250, -0.0078125, -0.0781250, -0.0234375, 0.0390625, -0.0312500, -0.0078125, -0.1093750, 0.1328125, -0.0234375, -0.0312500, -0.0078125, 0.0234375, -0.1015625, -0.0546875, 0.0390625, 0.1093750, -0.1093750, 0.0546875, 0.0156250, 0.0703125, -0.0937500, -0.0390625, 0.0000000, 0.0625000, 0.0390625, 0.0390625, -0.0468750, 0.0937500, 0.0390625, 0.0546875, 0.0859375, 0.1171875, 0.0312500, -0.0859375, -0.1406250, -0.0156250, -0.0234375, 0.0390625, -0.0312500, 0.0312500, 0.0156250, -0.0703125, 0.0312500, -0.0625000, -0.0078125, 0.0078125, -0.0546875, 0.0078125, 0.1015625, -0.0234375, 0.1015625, 0.1093750, 0.0156250, 0.0625000, 0.0000000, 0.0859375, 0.1171875, -0.1250000, 0.0156250, 0.1171875, 0.0000000, 0.0390625, -0.0234375, 0.0625000, 0.0234375, -0.0156250, -0.1328125, -0.0156250, -0.0156250, -0.0078125, 0.0625000, -0.0312500, -0.0234375, -0.0078125, -0.1328125, -0.0859375, -0.0546875, -0.0312500, 0.0546875, -0.0625000, 0.0546875, 0.1250000, 0.0234375, 0.0000000, 0.0312500, 0.1250000, -0.1250000, 0.0312500, 0.0000000, 0.0000000, 0.0078125, -0.0781250, 0.0000000, -0.0546875, -0.1328125, -0.0390625, -0.0078125, -0.0156250, -0.0078125, -0.0390625, 0.0000000, -0.1015625, -0.0234375, -0.1171875, 0.0781250, 0.0390625, 0.0625000, -0.0078125, -0.0546875, -0.0937500, 0.0078125, 0.0546875, -0.0859375, 0.0781250, -0.0468750, -0.0390625, 0.0156250, 0.0546875, -0.0234375, -0.0234375, -0.0625000, 0.1250000, 0.0859375, -0.0234375, -0.0078125, -0.0156250, 0.0390625, -0.0234375, -0.0078125, -0.0546875, 0.0156250, 0.0625000, -0.1406250, 0.0703125, 0.0000000, 0.0156250, -0.0312500, -0.0546875, 0.0156250, 0.0234375, -0.0390625, 0.1171875, -0.0156250, 0.0000000, 0.0312500, -0.0625000, 0.0937500, 0.0468750, -0.1015625, 0.0312500, -0.0703125, -0.0546875, 0.0156250, -0.0312500, -0.0312500, -0.0312500, 0.0703125, 0.0078125, 0.0781250, 0.0390625, 0.0703125, -0.0625000, 0.0078125, -0.0234375, -0.0703125, -0.1171875, 0.0703125, -0.0703125, 0.0859375, -0.0312500, -0.0703125, 0.0312500, -0.0234375, -0.1015625, -0.0703125, 0.0234375, -0.0937500, 0.0156250, 0.0937500, -0.0546875, 0.0078125, -0.0937500, 0.1015625, 0.0390625, 0.0156250, -0.0703125, 0.0390625, 0.0390625, 0.0703125, -0.0312500, -0.1250000, 0.0546875, -0.0546875, -0.0234375, -0.1406250, -0.0234375, 0.0312500, 0.0000000, 0.0781250, 0.0859375, 0.0156250, -0.0234375, 0.0234375, -0.0312500, -0.1015625, -0.0859375, 0.0000000, 0.0000000, 0.1328125, -0.0078125, 0.0625000, -0.0234375, 0.0234375, 0.0312500, 0.0312500, -0.0234375, -0.1328125, -0.0781250, 0.0781250, 0.0234375, 0.0390625, 0.0000000, -0.0312500, 0.0156250, 0.0937500, 0.1171875, 0.0078125, 0.1015625, 0.0468750, 0.0078125, -0.0234375, 0.0234375, 0.0468750, -0.0312500, 0.0546875, -0.0312500, 0.0000000, -0.0625000, 0.1093750, 0.0625000, -0.0156250, 0.0625000, -0.0781250, 0.0781250, -0.0312500, 0.0000000, -0.0312500, -0.0625000, 0.0625000, 0.0390625, 0.0078125, 0.0312500, 0.0937500, 0.0468750, -0.1171875, -0.0546875, 0.0468750, 0.0000000, -0.0859375, -0.0234375, 0.0156250, -0.0625000, -0.0312500, -0.0078125, 0.0156250, -0.1015625, -0.0546875, -0.0781250, 0.0937500, -0.1250000, 0.0625000, -0.0234375, -0.0468750, 0.0937500, -0.1171875, 0.0468750, 0.0312500, 0.0937500, 0.0546875, -0.1171875, 0.0625000, -0.1171875, -0.0234375, 0.0390625, 0.0468750, 0.0078125, -0.0156250, 0.1015625, 0.0625000, 0.0000000, -0.0859375, -0.0156250, -0.0937500, 0.0312500, 0.0078125, -0.0937500, -0.0546875, -0.0312500, -0.0703125, -0.0625000, 0.0390625, -0.0234375, 0.0078125, 0.0859375, -0.0468750, -0.0156250, 0.0078125, -0.0468750, -0.0078125, -0.0312500, -0.1328125, 0.0078125, 0.0234375, 0.0156250, 0.0156250, -0.0781250, 0.0546875, 0.0156250, -0.0312500, 0.0468750, 0.0859375, -0.0312500, -0.0312500, -0.0546875, -0.0156250, 0.0156250, -0.0078125, -0.0078125, 0.0546875, 0.0078125, 0.0390625, -0.0390625, -0.0468750, 0.0859375, -0.0781250, -0.0703125, -0.0078125, -0.0234375, 0.0781250, 0.0234375, 0.0625000, 0.0390625, -0.0546875, 0.0234375, 0.0312500, -0.1093750, 0.0312500, -0.0546875, -0.0078125, 0.0546875, 0.1171875, 0.0000000, 0.0156250, 0.0625000, 0.0312500, 0.0468750, -0.0468750, -0.0468750, 0.0156250, 0.1093750, -0.0312500, -0.0156250, -0.0625000, 0.0703125, 0.0234375, -0.0546875, 0.0859375, 0.1015625, 0.0468750, 0.0156250, 0.0078125, -0.0390625, -0.0390625, -0.0625000, -0.0859375, -0.0078125, 0.1171875, 0.1171875, 0.1328125, 0.0078125, -0.0625000, -0.0390625, 0.0156250, 0.0859375, 0.0156250, 0.0234375, -0.0703125, -0.1093750, 0.0625000, 0.0000000, 0.0625000, -0.0234375, -0.0468750, -0.0468750, -0.0312500, -0.0312500, 0.0078125, 0.0390625, -0.1250000, 0.0703125, 0.1015625, -0.0312500, -0.1093750, -0.0234375, 0.0468750, -0.0390625, 0.0781250, -0.0312500, 0.0703125, 0.1406250, 0.0000000, -0.0078125, 0.0156250, -0.0937500, 0.0781250, 0.0703125, -0.1171875, 0.0468750, -0.0937500, -0.0078125, 0.0234375, 0.0312500, -0.0390625, 0.0859375, -0.0781250, -0.1250000, 0.0468750, 0.0546875, 0.0468750, 0.0625000, 0.0859375, 0.0625000, 0.0000000, -0.0703125, 0.1171875, -0.0078125, -0.0781250, 0.0390625, 0.0000000, 0.0703125, -0.0234375, -0.0781250, 0.0625000, 0.0312500, 0.1171875, -0.0703125, 0.0468750, 0.0625000, -0.0703125, 0.0859375, -0.0234375, 0.0625000, 0.1015625, -0.0703125, -0.1406250, 0.0546875, 0.0078125, 0.0312500, 0.0156250, 0.0937500, 0.0781250, 0.0234375, -0.0234375, 0.0234375, -0.0390625, -0.0312500, -0.0390625, -0.0781250, 0.0546875, -0.0625000, -0.0078125, -0.0468750, 0.1250000, 0.0781250, 0.0156250, -0.0703125, 0.0937500, -0.0468750, 0.0781250, 0.0625000, -0.0546875, 0.0234375, 0.0000000, -0.1171875, 0.0468750, 0.0312500, -0.0781250, -0.0468750, -0.0234375, 0.0000000, -0.0468750, -0.0156250, 0.0000000, -0.0781250, 0.0937500, -0.0703125, -0.1171875, -0.1406250, 0.0156250, 0.0703125, 0.0156250, -0.0078125, -0.0468750, -0.0312500, 0.0000000, -0.0156250, -0.0546875, -0.0156250, -0.0234375, 0.0390625, -0.0546875, 0.0546875, 0.0468750, 0.0859375, 0.0546875, -0.0625000, -0.0781250, 0.0859375, -0.0312500, -0.0625000, 0.0703125, -0.0781250, -0.0625000, 0.0000000, 0.0937500, -0.0234375, 0.0390625, 0.0234375, 0.1015625, 0.0234375, 0.0390625, -0.0390625, -0.0937500, 0.0234375, -0.1093750, 0.0156250, 0.0234375, -0.0312500, 0.0234375, 0.0390625, 0.0625000, 0.0703125, -0.0312500, 0.0937500, 0.0156250, 0.0546875, 0.0937500, -0.0078125, -0.0625000, 0.0156250, -0.0625000, 0.0546875, 0.0156250, 0.0156250, -0.0703125, -0.0312500, -0.0781250, 0.0156250, -0.0859375, -0.0390625, -0.0859375, -0.0390625, 0.0625000, 0.0781250, 0.0937500, 0.0859375, 0.0703125, 0.0234375, 0.0390625, -0.0781250, 0.0312500, -0.0546875, -0.0156250, 0.0000000, -0.0625000, -0.0546875, -0.0390625, -0.0156250, -0.0546875, 0.0703125, 0.0625000, 0.0390625, 0.1171875, -0.1328125, -0.0156250, 0.0546875, 0.0234375, 0.0312500, 0.0156250, 0.0000000, 0.0000000, -0.1328125, 0.0546875, -0.0546875, 0.0078125, 0.0546875, 0.0781250, 0.0703125, 0.1015625, 0.0234375, -0.0703125, 0.0078125, -0.0859375, -0.0390625, 0.0390625, 0.0625000, 0.0234375, 0.0000000, -0.1093750, 0.0156250, 0.0234375, 0.1093750, -0.0312500, 0.0078125, -0.0234375, -0.0156250, -0.0546875, -0.0468750, 0.0312500, 0.0312500, -0.0078125, -0.1171875, 0.0546875, 0.0859375, -0.0390625, -0.0390625, 0.1250000, -0.1171875, -0.1015625, -0.0390625, -0.1171875, -0.0546875, -0.0156250, 0.0468750, -0.0859375, -0.0078125, 0.0000000, 0.0312500, 0.0781250, 0.1250000, -0.0781250, 0.0234375, -0.0468750, 0.0937500, 0.0390625, 0.1250000, -0.0312500, 0.0078125, 0.0000000, -0.0312500, -0.0390625, 0.0234375, -0.0234375, 0.0000000, -0.0156250, 0.0468750, -0.1093750, 0.0234375, -0.0546875, -0.0234375, -0.0703125, -0.0078125, 0.0078125, 0.0859375, -0.0859375, -0.0703125, 0.0156250, 0.1171875, 0.0546875, -0.0859375, 0.0468750, -0.0468750, -0.0937500, 0.0703125, -0.0312500, 0.0312500, -0.0703125, -0.0078125, 0.0781250, -0.0703125, 0.0859375, -0.0468750, -0.0156250, 0.0703125, 0.0000000, -0.0625000, 0.0468750, -0.0468750, 0.0078125, -0.0156250, 0.0781250, 0.0937500, 0.0312500, -0.0390625, 0.0468750, -0.0546875, 0.0234375, -0.0078125, 0.0312500, 0.0390625, 0.1171875, -0.0546875, 0.1406250, 0.1171875, 0.0078125, -0.0546875, 0.0000000, -0.1171875, 0.0390625, 0.0000000, 0.0312500, -0.0390625, -0.0859375, -0.0625000, 0.0546875, 0.0625000, 0.0312500, 0.1328125, 0.0859375, -0.0546875, 0.0234375, 0.0390625, 0.0859375, -0.0156250, 0.1406250, -0.0312500, -0.0546875, 0.0546875, 0.0156250, 0.0234375, -0.0468750, 0.0781250, 0.0234375, -0.0781250, -0.1250000, -0.0234375, 0.0859375, 0.0625000, -0.0078125, -0.0468750, -0.0781250, 0.0390625, -0.0546875, -0.0234375, 0.0312500, 0.0312500, 0.0703125, 0.0390625, -0.0468750, 0.0000000, 0.0156250, 0.0859375, 0.0312500, 0.0078125, -0.0703125, -0.0781250, -0.0234375, 0.0546875, -0.0546875, 0.0156250, 0.0625000, -0.0390625, -0.1015625, 0.1250000, -0.0078125, -0.0234375, -0.0156250, 0.0937500, 0.0937500, -0.1015625, 0.0312500, -0.0312500, -0.1015625, -0.0468750, -0.1093750, -0.0312500, 0.0234375, -0.1250000, -0.0781250, -0.0937500, 0.0234375, -0.0312500, 0.0703125, 0.1093750, 0.0234375, -0.0156250, 0.0781250, -0.0312500, -0.0234375, 0.0703125, 0.0156250, 0.1015625, -0.0781250, 0.1171875, -0.0390625, 0.0781250, 0.0703125, -0.0390625, -0.0781250, 0.0703125, 0.0781250, -0.0078125, 0.0234375, -0.0312500, -0.0859375, 0.0703125, 0.0625000, -0.0390625, 0.0859375, -0.0468750, 0.0468750, 0.0000000, 0.0000000, -0.0390625, 0.0156250, 0.0000000, 0.0234375, 0.0234375, -0.0078125, 0.0468750, 0.0859375, 0.0546875, 0.0781250, 0.0390625, 0.0859375, 0.0937500, 0.1250000, 0.0078125, -0.0390625, -0.0234375, -0.0312500, 0.0781250, 0.0937500, 0.0937500, -0.1406250, -0.0156250, -0.0312500, -0.1171875, 0.1015625, -0.0234375, 0.0781250, 0.0078125, 0.0546875, 0.0468750, 0.0546875, 0.0156250, 0.0156250, -0.0859375, 0.0468750, -0.0703125, 0.0078125, -0.0781250, -0.0312500, 0.0078125, -0.0625000, 0.0078125, -0.0312500, -0.0703125, -0.0703125, 0.0781250, 0.1250000, -0.0156250, 0.1171875, 0.1328125, -0.0234375, 0.0078125, 0.0468750, 0.0546875, 0.0000000, 0.0312500, -0.0234375, -0.0312500, 0.0859375, 0.0312500, -0.0078125, -0.1015625, 0.0000000, 0.0312500, 0.0546875, 0.0000000, 0.0625000, 0.0703125, 0.0546875, -0.0468750, 0.0000000, -0.0078125, 0.0546875, -0.0156250, 0.1406250, 0.0859375, -0.1171875, 0.0781250, 0.0781250, -0.0859375, 0.0625000, 0.0078125, 0.0078125, 0.0546875, 0.0156250, -0.1328125, -0.0156250, -0.0625000, -0.0156250, -0.0156250, -0.0468750, -0.1015625, -0.0937500, -0.0156250, 0.0937500, 0.0937500, -0.0312500, -0.0156250, 0.1250000, 0.0078125, 0.0078125, -0.0390625, 0.0156250, 0.0703125, 0.0390625, 0.0468750, 0.0781250, 0.0859375, 0.0468750, 0.0937500, 0.0937500, -0.0546875, -0.0234375, -0.1328125, -0.1015625, -0.0390625, -0.0234375, 0.0937500, -0.0312500, 0.0156250, 0.0312500, 0.0703125, -0.0625000, -0.0781250, -0.0781250, 0.0625000, 0.0312500, -0.1171875, -0.0390625, 0.0000000, -0.0468750, -0.0859375, -0.0390625, 0.0156250, -0.0468750, -0.0078125, -0.0781250, 0.0781250, 0.0078125, -0.0781250, 0.0000000, -0.0468750, 0.0781250, -0.0312500, 0.1015625, 0.0859375, 0.0312500, -0.0234375, 0.0781250, -0.0312500, -0.0546875, -0.0390625, -0.0781250, -0.0312500, 0.0703125, -0.0937500, 0.0312500, -0.0390625, -0.1015625, -0.0625000, -0.0312500, 0.0390625, -0.0703125, -0.0468750, -0.0312500, -0.0781250, -0.0859375, -0.0468750, 0.1250000, 0.0000000, -0.1015625, -0.0078125, -0.0781250, -0.1093750, -0.1406250, -0.0859375, 0.0546875, 0.0468750, 0.0312500, -0.0625000, -0.0312500, -0.0546875, 0.0625000, -0.0703125, 0.0156250, 0.0703125, 0.0703125, -0.0781250, -0.0546875, -0.0859375, -0.0390625, 0.0156250, 0.1406250, 0.0546875, -0.1015625, 0.0781250, -0.1015625, 0.0625000, 0.0156250, -0.0937500, 0.1250000, -0.1250000, 0.0390625, -0.0390625, -0.0234375, 0.0546875, -0.0703125, 0.0000000, -0.0312500, 0.0078125, 0.0468750, -0.0390625, 0.0781250, 0.0937500, 0.0000000, 0.0625000, -0.0078125, 0.0468750, 0.0234375, 0.0312500, -0.0859375, -0.0390625, 0.0781250, -0.0625000, 0.0468750, -0.1328125, 0.0000000, 0.0390625, -0.1093750, -0.0078125, -0.0234375, -0.1015625, 0.0468750, -0.0625000, -0.0703125, 0.0078125, 0.0468750, 0.0078125, -0.0156250, -0.0078125, 0.0937500, 0.1328125, -0.0156250, 0.0703125, 0.0156250, 0.0312500, -0.0312500, -0.0625000, 0.0156250, -0.1171875, -0.1015625, -0.0078125, -0.0781250, -0.0468750, -0.0312500, -0.0546875, -0.0312500, 0.1171875, -0.0781250, 0.0312500, -0.0937500, 0.0546875, 0.0625000, 0.0546875, -0.0468750, -0.0390625, -0.0625000, 0.0156250, -0.0234375, -0.0781250, 0.0390625, 0.0781250, -0.0078125, 0.0078125, -0.0468750, 0.0000000, -0.0156250, -0.1328125, -0.0859375, 0.0468750, 0.0156250, 0.0156250, -0.0703125, 0.0937500, -0.0468750, 0.0156250, 0.0546875, -0.0390625, -0.0390625, -0.1250000, 0.0156250, 0.0468750, -0.0156250, 0.1406250, -0.0156250, -0.0859375, 0.0156250, 0.0234375, -0.0156250, 0.0234375, 0.0781250, 0.0859375, -0.1250000, -0.0234375, 0.0390625, 0.0000000, -0.0703125, -0.0156250, -0.0625000, -0.0468750, -0.0703125, 0.0000000, 0.0937500, 0.0156250, -0.0078125, -0.0703125, 0.1406250, -0.1250000, 0.0000000, 0.0078125, 0.0937500, 0.1015625, 0.0859375, 0.0390625, -0.0156250, -0.0312500, -0.0234375, -0.0468750, -0.1328125, -0.0078125, -0.0703125, -0.0234375, -0.0078125, 0.0312500, -0.0312500, 0.0390625, -0.0156250, 0.0546875, -0.0781250, -0.0468750, -0.1250000, -0.0703125, 0.0546875, 0.0000000, -0.0078125, 0.0468750, 0.0234375, 0.0156250, 0.0000000, 0.0390625, 0.0937500, 0.0000000, 0.0781250, 0.1171875, -0.0937500, 0.0468750, 0.0390625, -0.0546875, -0.0078125, -0.0781250, -0.0312500, 0.0234375, -0.0078125, -0.0312500, -0.1015625, -0.0703125, -0.0078125, -0.0703125, -0.0468750, -0.0156250, 0.0312500, 0.0625000, -0.0546875, -0.0234375, 0.0781250, 0.0312500, -0.0781250, -0.0312500, -0.0703125, 0.0156250, 0.0703125, 0.0859375, -0.0156250, 0.0000000, -0.0156250, -0.0781250, -0.1250000, -0.0546875, 0.0937500, -0.0781250, -0.0546875, 0.0312500, 0.0000000, 0.0000000, -0.0937500, 0.0390625, -0.0546875, 0.0000000, -0.0234375, -0.0312500, 0.0703125, -0.0703125, -0.0312500, 0.0234375, -0.0468750, -0.0390625, -0.1328125, 0.0234375, -0.0312500, 0.1093750, -0.0234375, -0.1171875, 0.0546875, -0.0546875, 0.0312500, -0.0156250, 0.0390625, 0.0312500, 0.0156250, -0.0390625, -0.0078125, -0.0234375, -0.0546875, -0.0546875, -0.0859375, -0.0468750, -0.0390625, -0.0078125, 0.1328125, 0.0703125, -0.0312500, 0.1328125, 0.0468750, -0.0859375, -0.0312500, 0.0781250, -0.0625000, 0.0156250, 0.0312500, 0.1015625, -0.0078125, 0.0234375, 0.0937500, 0.0781250, -0.0859375, 0.0312500, -0.0312500, 0.0312500, -0.0468750, 0.0468750, 0.1015625, -0.0937500, -0.0390625, -0.0468750, 0.1250000, -0.1093750, -0.0078125, -0.1406250, 0.0546875, -0.0156250, -0.0546875, 0.0000000, 0.1015625, -0.0859375, 0.0703125, -0.0859375, -0.1406250, -0.0156250, -0.0937500, 0.0859375, -0.0546875, 0.0312500, 0.0468750, -0.0312500, 0.0078125, 0.0859375, -0.0078125, 0.0468750, -0.0546875, 0.1328125, -0.0390625, -0.0156250, 0.0703125, -0.0234375, -0.0156250, 0.0468750, 0.0468750, -0.0468750, -0.0234375, 0.0703125, -0.0468750, 0.0234375, 0.0468750, -0.1171875, 0.1406250, 0.0078125, 0.0703125, 0.0078125, -0.0546875, -0.0390625, 0.1093750, 0.0312500, 0.1250000, 0.0312500, 0.0312500, -0.0390625, -0.1015625, -0.0625000, -0.0234375, 0.0234375, 0.0000000, 0.0078125, -0.0781250, 0.1093750, 0.0234375, -0.0390625, -0.0156250, 0.0468750, -0.0859375, -0.0390625, 0.0468750, -0.0859375, -0.0156250, 0.0390625, 0.0468750, -0.0781250, 0.0312500, 0.0625000, 0.0078125, -0.0156250, -0.0781250, -0.1015625, 0.0078125, 0.0000000, 0.0390625, 0.0156250, 0.0078125, 0.0234375, 0.0000000, 0.0156250, 0.0000000, -0.1171875, -0.0390625, -0.0703125, -0.0859375, 0.0156250, 0.0390625, 0.0546875, -0.0312500, -0.0390625, -0.0234375, -0.0468750, 0.0703125, 0.0703125, 0.0078125, -0.0234375, 0.0234375, 0.0312500, 0.0546875, 0.0468750, 0.0078125, 0.0859375, -0.0703125, -0.0312500, 0.0468750, 0.0937500, -0.0312500, 0.0781250, -0.0625000, 0.0078125, 0.1093750, -0.0312500, -0.0703125, 0.0625000, -0.0468750, -0.1171875, -0.0390625, -0.1171875, -0.0859375, 0.0625000, 0.0390625, 0.0468750, 0.0156250, 0.1015625, 0.0078125, -0.0078125, -0.0703125, -0.0156250, 0.0312500, 0.0078125, -0.0937500, -0.0156250, -0.0312500, -0.0234375, 0.0312500, 0.0156250, -0.0468750, 0.0312500, 0.0000000, -0.0234375, 0.0937500, -0.0625000, -0.1171875, 0.0234375, -0.0156250, 0.0703125, -0.0312500, -0.0156250, 0.0625000, -0.0859375, 0.0859375, 0.0312500, -0.0937500, 0.0546875, 0.0156250, -0.1171875, -0.0781250, 0.0703125, -0.0625000, -0.0625000, -0.0078125, -0.0078125, -0.0703125, -0.0312500, 0.0390625, -0.0078125, -0.0078125, 0.1093750, 0.0390625, 0.0156250, 0.0312500, -0.0859375, -0.1015625, -0.0234375, -0.0781250, 0.0546875, -0.0312500, 0.1328125, -0.0468750, -0.0312500, -0.1250000, -0.1093750, 0.0625000, 0.0859375, 0.0000000, 0.0937500, -0.1171875, 0.0234375, 0.0234375, 0.0078125, 0.0234375, 0.1171875, 0.0625000, -0.1250000, 0.0156250, -0.0781250, 0.0859375, -0.0859375, 0.0781250, 0.0000000, 0.0546875, -0.0390625, 0.0078125, 0.0000000, -0.0156250, -0.0859375, 0.0937500, 0.0859375, 0.1250000, -0.0781250, 0.0234375, 0.0625000, 0.1171875, 0.0156250, 0.0156250, 0.0234375, -0.0234375, 0.0234375, 0.0234375, -0.0468750, -0.1250000, 0.0625000, 0.0390625, -0.0468750, -0.0078125, 0.0000000, -0.0078125, -0.0234375, 0.0312500, -0.1171875, -0.1093750, 0.1406250, 0.0078125, -0.0625000, -0.0703125, -0.0312500, -0.0468750, -0.0625000, 0.0078125, 0.1015625, 0.0078125, -0.1328125, 0.0859375, -0.0390625, -0.0390625, -0.0390625, -0.0468750, -0.1015625, -0.1093750, -0.0468750, 0.0468750, 0.1015625, -0.0390625, -0.1015625, -0.0156250, 0.0546875, -0.1250000, 0.0078125, 0.0468750, -0.1250000, 0.0078125, -0.1406250, -0.0468750, 0.0312500, -0.0937500, -0.0234375, -0.0312500, 0.0234375, 0.0156250, 0.1328125, -0.0468750, -0.0625000, -0.1015625, 0.0390625, -0.0625000, 0.0937500, 0.0546875, 0.0859375, -0.0156250, 0.0468750, -0.1015625, -0.0312500, 0.0078125, 0.0937500, -0.0781250, -0.0468750, 0.0859375, 0.0156250, -0.0078125, -0.1171875, -0.0703125, -0.1171875, -0.1171875, 0.0390625, 0.0546875, 0.0156250, 0.0859375, 0.0625000, 0.0703125, 0.0078125, -0.0312500, -0.0625000, -0.0312500, 0.0078125, 0.0000000, 0.0000000, -0.1171875, -0.0156250, 0.0078125, -0.0312500, -0.0625000, -0.0781250, -0.0937500, -0.0234375, 0.0000000, 0.0625000, 0.0000000, 0.0000000, 0.0781250, -0.0625000, 0.0468750, -0.0390625, 0.0078125, -0.0625000, 0.0703125, 0.0937500, 0.0703125, 0.0000000, -0.0234375, -0.0312500, 0.0546875, 0.0156250, -0.0859375, -0.0781250, 0.1015625, -0.0546875, 0.0234375, 0.1015625, 0.0937500, 0.0156250, -0.0703125, 0.0000000, 0.0156250, -0.0703125, 0.0390625, 0.1171875, 0.1328125, 0.0390625, -0.0468750, -0.0156250, 0.0234375, 0.0312500, 0.0078125, -0.0390625, 0.0625000, -0.0078125, -0.0156250, 0.1406250, 0.0312500, -0.0234375, -0.0156250, -0.0703125, 0.0000000, -0.0546875, -0.0078125, 0.0312500, 0.0234375, 0.0859375, 0.0390625, -0.0078125, -0.0156250, 0.1015625, 0.0234375, 0.0468750, 0.0468750, -0.0703125, 0.0156250, -0.0390625, 0.0312500, 0.0234375, -0.1015625, 0.0156250, 0.1250000, 0.0234375, 0.0859375, 0.1328125, 0.0468750, -0.0625000, 0.0468750, -0.0546875, 0.1093750, 0.0625000, -0.0390625, -0.1406250, 0.0546875, -0.0468750, -0.0625000, 0.0078125, -0.0859375, -0.0156250, -0.0390625, 0.1093750, 0.1250000, -0.0078125, -0.1093750, -0.1093750, -0.0781250, -0.0781250, -0.0234375, -0.0078125, -0.0546875, -0.0390625, -0.0234375, -0.0390625, -0.0078125, 0.0078125, -0.0703125, -0.0546875, 0.0156250, -0.0546875, -0.0468750, -0.1093750, -0.0390625, 0.0625000, 0.0234375, 0.0937500, 0.0000000, 0.0703125, -0.0781250, -0.0234375, -0.1406250, -0.0546875, 0.0859375, 0.0234375, -0.0390625, 0.0078125, -0.0546875, -0.0078125, 0.1093750, -0.0781250, -0.0234375, 0.0859375, 0.0156250, 0.0156250, -0.0312500, 0.0546875, 0.0781250, 0.0859375, 0.0546875, 0.0156250, 0.0390625, -0.0546875, -0.0937500, 0.0859375, -0.1171875, 0.0625000, -0.0390625, 0.0000000, -0.0546875, 0.0546875, 0.0312500, 0.1250000, -0.0468750, 0.0625000, 0.0859375, -0.0468750, 0.0312500, -0.0078125, 0.0312500, 0.0859375, 0.0390625, 0.0312500, 0.0390625, 0.0312500, -0.0312500, 0.0234375, -0.0234375, 0.0234375, -0.0859375, -0.0156250, -0.0312500, 0.0546875, 0.0000000, 0.0468750, 0.0234375, -0.0156250, 0.1171875, 0.0859375, 0.0390625, -0.0781250, -0.1328125, -0.0468750, 0.0390625, 0.0312500, 0.0078125, -0.0468750, -0.0625000, 0.1171875, 0.0468750, 0.0156250, -0.0234375, -0.0156250, 0.0625000, -0.0781250, -0.0234375, 0.0000000, 0.0859375, 0.0859375, -0.0546875, 0.0937500, 0.0234375, 0.0000000, 0.1015625, -0.0546875, 0.0468750, 0.0468750, 0.0156250, -0.0468750, 0.0078125, 0.0078125, -0.0312500, -0.0234375, 0.0312500, 0.0546875, 0.0703125, 0.0156250, -0.0468750, 0.0468750, 0.0000000, -0.0234375, -0.1015625, 0.0781250, 0.0312500, 0.0078125, 0.1328125, 0.0156250, 0.0625000, -0.0546875, -0.0625000, 0.0156250, 0.0468750, -0.0468750, 0.0000000, 0.0156250, 0.0781250, -0.0625000, 0.0156250, -0.0156250, -0.0859375, 0.1093750, 0.0000000, 0.0000000, -0.1015625, 0.0312500, 0.0468750, 0.0468750, -0.0703125, 0.0468750, 0.0000000, 0.0312500, -0.0234375, -0.1015625, 0.0156250, 0.0546875, -0.0390625, 0.0000000, -0.1093750, 0.0312500, 0.0312500, -0.0703125, 0.0937500, 0.0234375, -0.0156250, 0.0546875, 0.0781250, 0.0156250, -0.0390625, -0.0312500, 0.0468750, 0.0468750, -0.0234375, -0.0781250, 0.0703125, -0.0859375, -0.1093750, -0.0234375, 0.1250000, -0.0546875, 0.0625000, -0.0078125, 0.1250000, 0.0078125, -0.0156250, 0.0078125, -0.0703125, -0.0078125, 0.0625000, -0.0937500, 0.0625000, 0.0234375, 0.0078125, 0.0390625, -0.0312500, 0.0703125, -0.0312500, -0.0156250, 0.0000000, -0.0156250, 0.0000000, -0.0859375, 0.0390625, -0.0468750, 0.0937500, -0.0390625, -0.1015625, -0.0390625, -0.0937500, -0.0312500, 0.0000000, 0.0234375, 0.0546875, 0.0000000, -0.0468750, 0.1171875, -0.0546875, 0.0078125, -0.0625000, -0.0156250, 0.0312500, -0.0156250, -0.0390625, -0.1171875, -0.0312500, 0.0078125, 0.0468750, -0.1015625, 0.1328125, -0.0937500, -0.0859375, -0.0234375, 0.0781250, -0.0078125, -0.0078125, -0.0156250, -0.0937500, 0.0078125, 0.0468750, 0.0937500, 0.0859375, -0.0468750, -0.0468750, -0.0234375, -0.0234375, 0.1250000, -0.1093750, -0.0390625, -0.0703125, 0.0000000, -0.0703125, 0.0625000, -0.0703125, -0.0625000, -0.0781250, -0.0859375, -0.0312500, 0.0078125, -0.0078125, -0.0468750, -0.1015625, -0.0625000, 0.0390625, 0.0390625, 0.0312500, 0.1250000, -0.0390625, 0.0390625, 0.0625000, -0.0468750, -0.0859375, 0.0156250, -0.0156250, 0.0312500, -0.0703125, -0.0468750, -0.0468750, 0.0468750, 0.0312500, -0.0468750, -0.0156250, -0.0781250, 0.0546875, -0.0468750, -0.0468750, 0.0468750, -0.0468750, 0.0625000, 0.1093750, 0.0546875, -0.0781250, -0.0937500, -0.0390625, 0.0156250, -0.0468750, -0.0625000, -0.0156250, 0.1171875, 0.0234375, -0.1406250, 0.0312500, 0.0078125, -0.0312500, 0.0625000, -0.0078125, -0.0781250, -0.0625000, -0.0078125, 0.0156250, 0.0390625, 0.0468750, -0.0937500, -0.0546875, 0.0000000, -0.1093750, 0.0234375, 0.0937500, 0.0156250, -0.0234375, 0.0937500, 0.0546875, -0.1328125, -0.0937500, 0.0390625, 0.1171875, 0.0156250, -0.0625000, 0.1406250, 0.1171875, 0.0000000, 0.0781250, 0.0625000, 0.0234375, -0.0234375, 0.0312500, -0.0078125, 0.0000000, 0.0000000, -0.0937500, 0.0156250, 0.1328125, -0.0390625, -0.0546875, -0.0625000, 0.0156250, 0.0156250, 0.0312500, 0.0781250, -0.0312500, 0.0859375, -0.0468750, -0.0703125, -0.1328125, 0.0390625, -0.0781250, -0.0546875, -0.0390625, 0.0156250, 0.1250000, 0.0312500, -0.0312500, 0.0234375, -0.0625000, 0.0156250, -0.0156250, 0.0859375, -0.0234375, 0.0546875, 0.0078125, -0.1250000, -0.0703125, -0.0546875, 0.0468750, -0.1171875, 0.0078125, -0.0312500, 0.0468750, -0.0546875, 0.1093750, 0.0078125, -0.1328125, -0.0078125, 0.1093750, 0.0625000, 0.0859375, 0.0468750, 0.0234375, -0.0468750, -0.0312500, 0.0000000, 0.0156250, -0.0546875, -0.0078125, -0.0312500, -0.0078125, 0.0781250, 0.0000000, -0.0546875, 0.1015625, 0.0546875, 0.0859375, -0.0312500, 0.0625000, 0.0312500, -0.0390625, 0.0234375, -0.0468750, 0.1250000, 0.1093750, 0.0000000, -0.0078125, 0.0078125, -0.0312500, -0.0703125, 0.0312500, -0.0859375, -0.0078125, -0.1015625, -0.0078125, -0.0234375, 0.0781250, 0.0781250, -0.1171875, 0.0000000, -0.0156250, 0.1093750, 0.0078125, -0.0546875, 0.0546875, -0.1171875, 0.1171875, 0.0468750, -0.0859375, -0.1015625, -0.0390625, -0.0234375, 0.0390625, 0.0312500, -0.0234375, 0.0234375, 0.0156250, -0.0078125, -0.1015625, 0.0000000, 0.0234375, -0.0156250, -0.0156250, 0.0234375, -0.0390625, 0.1406250, 0.0859375, -0.1015625, -0.0625000, 0.0078125, 0.0625000, 0.0468750, -0.0781250, 0.0156250, 0.0000000, -0.0312500, 0.0390625, 0.0234375, 0.1250000, 0.0312500, 0.0078125, 0.1250000, 0.0546875, 0.0000000, -0.0703125, -0.0468750, 0.0234375, 0.1250000, 0.0468750, -0.0078125, 0.0390625, 0.0156250, 0.1015625, 0.0000000, -0.0703125, 0.1015625, -0.0312500, 0.0625000, -0.0390625, 0.0937500, -0.0937500, 0.0390625, 0.0312500, -0.0781250, 0.1328125, 0.0703125, 0.0078125, -0.0390625, -0.0156250, -0.1171875, -0.0156250, -0.0078125, 0.0312500, -0.0312500, -0.0468750, 0.0312500, 0.0703125, -0.0312500, -0.0390625, -0.0703125, 0.0078125, 0.1093750, -0.0468750, -0.1015625, 0.0000000, 0.0312500, -0.0234375, -0.0312500, -0.0156250, 0.0781250, 0.0859375, 0.1406250, -0.0156250, -0.0781250, -0.0234375, 0.0312500, -0.0078125, -0.0234375, -0.0390625, 0.0546875, 0.0546875, -0.0546875, -0.0234375, -0.0234375, -0.1093750, 0.0000000, 0.0078125, 0.1093750, 0.0546875, -0.1015625, 0.0546875, -0.0390625, 0.1015625, 0.0000000, -0.0078125, 0.0390625, -0.0468750, 0.0703125, -0.0156250, -0.0546875, 0.0468750, -0.0390625, 0.0937500, 0.0234375, -0.0625000, 0.0468750, -0.0703125, 0.1093750, 0.0234375, -0.0390625, -0.0312500, 0.0078125, 0.0000000, -0.1406250, -0.0703125, 0.0078125, 0.0703125, -0.0468750, -0.0312500, -0.0468750, 0.0468750, 0.0781250, 0.0468750, -0.0156250, -0.0078125, -0.1171875, -0.0546875, 0.0078125, -0.0078125, -0.0859375, 0.0156250, 0.0078125, 0.0234375, 0.0625000, -0.0703125, -0.0312500, 0.0937500, 0.0234375, -0.1250000, -0.0546875, 0.1171875, 0.0234375, 0.0234375, 0.0546875, 0.1015625, 0.1093750, -0.0390625, 0.0234375, 0.0234375, -0.0859375, 0.0390625, 0.0859375, 0.0156250, 0.1406250, -0.1250000, -0.0703125, 0.0078125, -0.0468750, -0.0703125, -0.0312500, -0.0937500, -0.0390625, -0.0703125, 0.0078125, -0.0156250, 0.0000000, -0.0781250, -0.0312500, 0.0625000, -0.1171875, -0.0703125, 0.1093750, 0.0546875, -0.0390625, -0.0625000, -0.0781250, 0.0234375, -0.0156250, 0.0234375, 0.0546875, 0.1328125, 0.0156250, 0.0625000, 0.0546875, 0.0000000, -0.0625000, -0.0234375, 0.0625000, -0.0859375, -0.0234375, 0.0312500, -0.0703125, 0.0390625, -0.1171875, 0.0000000, 0.0468750, -0.0156250, -0.1406250, 0.0390625, -0.0625000, -0.0468750, -0.0625000, 0.0468750, 0.0781250, -0.0156250, -0.0390625, -0.0703125, -0.1250000, 0.1328125, -0.1093750, 0.0234375, -0.0390625, 0.0625000, -0.1015625, 0.0781250, 0.0781250, -0.0234375, 0.0078125, 0.0234375, -0.0390625, 0.0156250, -0.0859375, -0.0468750, -0.0156250, 0.0390625, -0.0390625, -0.0390625, -0.0546875, -0.0156250, 0.0703125, 0.0859375, -0.0859375, -0.0390625, -0.0546875, -0.0546875, 0.0312500, -0.0781250, -0.0156250, -0.0234375, 0.0390625, -0.0078125, 0.0156250, -0.0234375, 0.1093750, -0.0781250, 0.0390625, 0.0000000, 0.1015625, -0.0468750, -0.0390625, 0.0781250, -0.1015625, 0.1015625, 0.0703125, 0.0781250, -0.0390625, 0.0078125, -0.0546875, -0.0468750, -0.0390625, 0.0156250, -0.0625000, 0.0234375, -0.0781250, -0.0703125, 0.1093750, 0.0546875, 0.0156250, -0.0312500, -0.1093750, -0.1093750, -0.0156250, -0.0234375, 0.0859375, -0.0156250, -0.0078125, 0.0312500, 0.0234375, -0.0546875, -0.0703125, 0.0390625, -0.0312500, 0.0781250, -0.0937500, -0.0234375, 0.0859375, 0.0390625, -0.0312500, -0.0703125, -0.0546875, 0.1171875, -0.0781250, 0.0390625, -0.0468750, 0.0703125, 0.1328125, 0.0156250, 0.0859375, 0.0234375, 0.0468750, 0.1093750, -0.1015625, 0.0625000, 0.1015625, 0.0625000, 0.0468750, -0.0546875, 0.0078125, -0.0625000, 0.0859375, -0.0078125, 0.0000000, -0.0546875, 0.0625000, -0.1406250, -0.0703125, -0.0468750, -0.0156250, -0.0156250, 0.1250000, 0.0312500, 0.0546875, -0.0312500, -0.0859375, 0.0390625, 0.0390625, -0.0234375, 0.1015625, 0.1171875, -0.0234375, 0.0937500, -0.0859375, -0.0156250, -0.1406250, -0.0156250, 0.0312500, -0.0546875, -0.1171875, -0.0859375, 0.0000000, -0.0859375, -0.0625000, -0.1171875, 0.0625000, -0.0390625, 0.0703125, -0.1328125, 0.0156250, 0.0078125, -0.0468750, -0.0859375, 0.0468750, -0.0390625, -0.0859375, -0.0468750, -0.1171875, 0.0078125, -0.0156250, 0.0156250, -0.0937500, 0.0546875, 0.0312500, 0.0859375, 0.0078125, 0.0468750, 0.0390625, -0.0156250, 0.0468750, 0.0000000, 0.0000000, 0.0781250, 0.0000000, 0.0312500, -0.0312500, 0.1250000, -0.0859375, 0.0078125, -0.0156250, -0.0234375, -0.0078125, 0.1171875, -0.0859375, 0.0781250, -0.1406250, -0.0078125, 0.0859375, 0.0234375, -0.0625000, -0.0078125, 0.0781250, 0.0468750, 0.0000000, 0.0312500, 0.1015625, -0.0468750, 0.0546875, 0.0703125, -0.0937500, 0.0625000, 0.0625000, 0.0625000, 0.0781250, -0.0781250, -0.0156250, -0.0781250, 0.0781250, 0.0000000, 0.0078125, 0.0468750, 0.0312500, 0.0468750, -0.0859375, -0.0546875, 0.0234375, -0.0078125, -0.0156250, 0.0859375, -0.0312500, 0.0312500, -0.0468750, 0.0000000, -0.0859375, 0.0546875, -0.0156250, -0.1250000, 0.1250000, 0.0000000, 0.0312500, -0.0390625, 0.0468750, -0.0312500, 0.0000000, 0.0156250, -0.1328125, -0.0078125, 0.0000000, -0.0312500, -0.1093750, -0.0234375, 0.0390625, 0.0000000, 0.0078125, -0.0156250, -0.1250000, -0.0781250, 0.0781250, 0.0781250, -0.0078125, 0.0546875, 0.0937500, 0.0468750, 0.1093750, 0.0625000, 0.0390625, 0.0468750, 0.0390625, -0.0156250, 0.0234375, 0.0078125, 0.0468750, 0.0312500, 0.0000000, -0.0468750, 0.0156250, 0.1406250, 0.0312500, 0.0234375, 0.0000000, 0.0234375, 0.1171875, 0.0312500, 0.0468750, 0.0156250, 0.0468750, 0.0390625, 0.0937500, 0.0546875, 0.0078125, 0.0312500, -0.0859375, -0.0234375, -0.0234375, -0.0312500, -0.0078125, -0.0625000, 0.0625000, 0.0312500, -0.0234375, 0.0078125, 0.0000000, 0.0546875, -0.0781250, -0.0468750, 0.0312500, 0.0000000, -0.0546875, 0.0156250, 0.0859375, -0.0156250, -0.0546875, -0.0078125, 0.0390625, 0.0156250, 0.1171875, -0.0546875, 0.0234375, -0.0234375, 0.0468750, 0.0937500, -0.0468750, -0.1171875, -0.0312500, 0.0078125, 0.0390625, -0.1250000, -0.0078125, 0.0625000, 0.0078125, 0.0390625, -0.0703125, 0.0625000, -0.1171875, -0.0156250, 0.0703125, 0.0312500, -0.1171875, -0.0312500, -0.0468750, -0.0312500, 0.0000000, -0.0703125, 0.1171875, -0.0625000, 0.0781250, -0.1171875, -0.0937500, 0.0703125, 0.1015625, -0.0546875, 0.1015625, -0.0468750, 0.0937500, -0.0078125, -0.0468750, 0.0156250, -0.0703125, -0.0078125, -0.1015625, 0.1171875, -0.0546875, 0.0468750, -0.0234375, -0.0781250, 0.0156250, -0.0078125, -0.0078125, 0.0625000, -0.0156250, -0.0859375, -0.0312500, -0.0468750, -0.0859375, 0.0000000, 0.0859375, 0.0625000, -0.0546875, -0.0078125, -0.0156250, -0.0859375, -0.0156250, -0.0859375, 0.0312500, 0.0625000, 0.0625000, 0.0781250, 0.0390625, -0.1171875, -0.0390625, 0.0468750, 0.0000000, 0.0468750, -0.0156250, -0.0390625, 0.0234375, -0.0546875, -0.0156250, -0.0312500, 0.0390625, -0.0468750, 0.0468750, 0.0078125, -0.0625000, -0.0156250, -0.0234375, 0.0234375, -0.0937500, 0.0937500, -0.0703125, 0.0468750, 0.0859375, -0.0546875, 0.0703125, 0.1093750, 0.0546875, -0.0546875, -0.0937500, -0.0312500, 0.1406250, -0.0078125, -0.0390625, -0.0859375, 0.0234375, -0.0859375, 0.0000000, 0.0078125, 0.0781250, -0.0781250, 0.0937500, 0.0390625, 0.0390625, -0.1015625, -0.0546875, -0.0156250, -0.0234375, 0.0312500, -0.0546875, -0.0234375, -0.0625000, 0.0390625, 0.0078125, 0.0390625, 0.0000000, 0.0625000, 0.0312500, -0.0546875, -0.0468750, -0.0078125, -0.1015625, 0.1328125, -0.0781250, -0.0078125, -0.1171875, 0.0234375, 0.0703125, 0.0156250, -0.0937500, 0.0312500, 0.0859375, -0.0234375, -0.0078125, 0.0390625, 0.0000000, -0.1015625, 0.0859375, 0.0937500, 0.0312500, 0.0390625, -0.0156250, 0.0390625, -0.0234375, 0.0156250, 0.0781250, 0.0390625, -0.0234375, -0.0078125, 0.0312500, 0.1250000, -0.0390625, -0.0234375, -0.0390625, -0.0156250, -0.0390625, 0.0859375, -0.1015625, 0.0781250, 0.1093750, 0.0078125, 0.0625000, 0.1015625, 0.0312500, 0.0156250, 0.1250000, -0.1093750, -0.0390625, 0.0234375, 0.0546875, -0.0625000, -0.0468750, -0.0234375, -0.0390625, 0.0000000, -0.0156250, -0.0390625, 0.0859375, 0.0312500, -0.0390625, -0.1171875, 0.0546875, 0.0781250, 0.0390625, -0.0546875, 0.0859375, -0.0468750, -0.1015625, 0.0937500, 0.1015625, 0.0234375, 0.0000000, 0.0312500, 0.0000000, 0.0156250, 0.1406250, -0.0625000, 0.0234375, 0.0000000, -0.0156250, -0.1015625, 0.0312500, 0.0859375, 0.0156250, -0.0078125, -0.0703125, 0.0234375, -0.0937500, 0.0156250, 0.0390625, -0.0078125, -0.0781250, -0.0156250, 0.0546875, -0.0390625, -0.0234375, -0.0234375, 0.0312500, 0.0156250, 0.0546875, -0.0625000, -0.0859375, 0.0703125, -0.0156250, 0.0625000, 0.0234375, 0.0078125, -0.0703125, 0.0468750, -0.0078125, 0.0078125, 0.0390625, 0.0625000, -0.0390625, -0.0468750, -0.0859375, -0.0156250, 0.0859375, 0.0156250, -0.1015625, 0.0156250, -0.0078125, 0.0703125, -0.0078125, 0.0156250, 0.0390625, 0.0234375, 0.0937500, -0.0625000, 0.0312500, 0.0468750, 0.0234375, 0.0000000, -0.0156250, -0.0312500, -0.0625000, 0.0390625, -0.0312500, 0.0859375, -0.0078125, -0.0312500, -0.0078125, 0.0078125, -0.0312500, 0.0468750, 0.0468750, 0.0546875, -0.0156250, -0.0078125, 0.0078125, 0.0546875, -0.0156250, 0.0703125, -0.0781250, 0.0937500, 0.0937500, -0.0234375, -0.0234375, 0.0312500, -0.0234375, 0.0156250, 0.0234375, -0.0078125, 0.1171875, 0.0156250, 0.0156250, 0.0078125, -0.0468750, -0.0625000, 0.1171875, -0.0546875, -0.0468750, -0.0703125, -0.0078125, 0.0000000, 0.0625000, -0.0859375, 0.0312500, -0.0468750, -0.0312500, -0.0468750, -0.0468750, 0.1015625, -0.0468750, 0.0234375, 0.0937500, -0.0937500, -0.0937500, 0.0703125, 0.0000000, 0.0156250, -0.0468750, -0.0390625, -0.0468750, 0.0078125, 0.0234375, 0.0234375, -0.0781250, -0.0234375, 0.0546875, -0.0156250, -0.0390625, -0.0468750, -0.0312500, 0.0390625, 0.1171875, -0.0078125, 0.0078125, 0.0312500, -0.0625000, -0.0156250, 0.0390625, -0.0156250, 0.0078125, 0.0625000, -0.0234375, -0.0859375, 0.1250000, 0.0078125, 0.0859375, 0.0781250, 0.0390625, -0.0156250, -0.1171875, 0.0312500, 0.0156250, 0.0156250, 0.0781250, -0.0390625, 0.0468750, 0.0390625, 0.0781250, -0.0234375, -0.0078125, 0.0234375, -0.0156250, 0.0781250, -0.0312500, 0.0937500, -0.0156250, 0.0859375, 0.0468750, -0.1250000, 0.0234375, 0.0312500, 0.0937500, 0.1250000, -0.0703125, 0.0156250, -0.0781250, -0.0625000, 0.0234375, -0.1250000, -0.0390625, -0.0156250, 0.0937500, 0.0000000, 0.0468750, 0.1015625, -0.0625000, -0.0781250, 0.0390625, 0.0234375, -0.0625000, -0.0937500, -0.0468750, 0.0703125, -0.0312500, 0.0625000, 0.0468750, 0.0625000, 0.0156250, -0.0156250, -0.1093750, -0.0546875, -0.0625000, -0.0156250, 0.0312500, -0.0234375, -0.0234375, 0.0781250, -0.0625000, -0.0468750, 0.1015625, -0.0390625, -0.0859375, -0.0312500, -0.0937500, -0.0625000, 0.0078125, 0.0546875, -0.0937500, 0.0937500, -0.0703125, -0.1250000, -0.0859375, 0.0078125, -0.0078125, -0.0703125, 0.0859375, -0.0156250, -0.0234375, -0.0390625, -0.0781250, 0.0312500, -0.0234375, -0.0546875, 0.0000000, -0.0078125, 0.0625000, -0.0781250, -0.0781250, 0.0937500, -0.0234375, 0.0312500, 0.0468750, 0.0625000, -0.0859375, -0.0156250, -0.0625000, -0.0234375, -0.0156250, -0.0937500, 0.0390625, -0.1015625, -0.0781250, 0.0000000, 0.0390625, 0.0312500, -0.0234375, -0.0312500, 0.0859375, -0.0390625, 0.0937500, 0.1406250, 0.0703125, -0.0859375, 0.0546875, 0.0000000, 0.0000000, 0.0468750, -0.0546875, 0.0312500, 0.0156250, 0.0546875, -0.0156250, 0.0781250, 0.0312500, -0.0312500, 0.1093750, 0.1250000, -0.0234375, -0.0546875, 0.0234375, -0.0937500, 0.0312500, 0.0312500, 0.0468750, -0.0703125, 0.0390625, -0.0234375, -0.0625000, -0.0234375, -0.0546875, 0.0156250, -0.0390625, -0.1015625, -0.0703125, 0.0156250, 0.0078125, 0.1015625, -0.0703125, 0.0078125, -0.0234375, 0.0234375, -0.0078125, -0.0703125, -0.0468750, 0.0234375, 0.0468750, 0.0312500, -0.0390625, 0.0625000, -0.0859375, 0.0546875, -0.0156250, 0.0859375, -0.0156250, -0.0468750, -0.0625000, -0.0312500, 0.0000000, -0.0781250, 0.1250000, 0.0312500, 0.0390625, -0.0546875, -0.1093750, -0.0234375, 0.0078125, -0.0078125, 0.0625000, -0.0234375, -0.0390625, -0.0078125, -0.1093750, 0.0468750, -0.0234375, 0.0546875, -0.0234375, 0.0078125, -0.0703125, 0.1250000, -0.0468750, -0.0234375, -0.0468750, 0.0703125, -0.0078125, -0.0312500, -0.0156250, -0.0781250, 0.1328125, 0.0468750, 0.0703125, 0.0078125, 0.0859375, -0.0312500, 0.0546875, 0.0390625, 0.0312500, -0.0078125, 0.0078125, 0.0703125, -0.0859375, -0.0156250, 0.0234375, -0.0781250, -0.0781250, 0.0781250, 0.0156250, -0.0703125, 0.0468750, 0.1171875, 0.0156250, -0.0781250, 0.0312500, 0.0000000, 0.0937500, 0.0390625, 0.0625000, 0.1250000, -0.0703125, 0.0468750, -0.0625000, -0.0156250, -0.0312500, 0.0234375, 0.0468750, -0.1015625, 0.0390625, 0.0312500, 0.0234375, -0.1093750, -0.0546875, 0.0468750, 0.0703125, -0.0156250, 0.0234375, 0.0390625, -0.0390625, -0.0234375, 0.0625000, 0.0312500, 0.1171875, 0.0000000, -0.0703125, 0.0000000, -0.0156250, -0.0781250, -0.0078125, 0.0234375, 0.0078125, -0.0703125, -0.0312500, -0.0625000, -0.0234375, 0.0000000, -0.0078125, 0.0468750, -0.0078125, 0.0000000, -0.0781250, 0.0468750, -0.0390625, 0.0234375, 0.1250000, 0.0468750, -0.0156250, 0.0078125, 0.1015625, -0.0156250, -0.0390625, -0.1406250, -0.0546875, 0.0468750, 0.0781250, -0.0937500, 0.1015625, -0.0859375, 0.1328125, 0.0234375, -0.1328125, 0.0859375, -0.1015625, 0.0234375, -0.0468750, 0.0546875, -0.0625000, 0.0546875, 0.1171875, -0.0781250, -0.0390625, -0.0390625, 0.0781250, -0.0234375, 0.0000000, 0.0546875, 0.0859375, 0.0625000, -0.0078125, -0.0781250, -0.1328125, -0.1093750, 0.0546875, -0.0937500, 0.0000000, -0.1328125, 0.0781250, -0.0468750, 0.0468750, 0.0156250, 0.0625000, 0.0781250, 0.0078125, 0.0390625, -0.1015625, -0.0468750, 0.0078125, -0.1093750, 0.1015625, 0.0000000, -0.0859375, -0.0312500, 0.0000000, -0.0703125, 0.0156250, -0.0781250, 0.0625000, 0.0000000, 0.0156250, -0.0234375, 0.0234375, 0.1093750, -0.0859375, -0.0234375, -0.0156250, -0.0078125, -0.0937500, 0.0390625, 0.0000000, 0.0078125, -0.0937500, 0.0000000, 0.0078125, 0.0703125, 0.1406250, -0.0156250, 0.0000000, 0.1250000, -0.0078125, 0.0937500, 0.0000000, 0.0937500, -0.0546875, 0.0078125, -0.0234375, 0.0000000, 0.0078125, 0.0625000, -0.0625000, 0.1406250, -0.0546875, 0.0390625, -0.0234375, 0.0859375, -0.0625000, -0.0390625, -0.0078125, -0.0234375, -0.0156250, -0.0468750, 0.0859375, 0.0468750, 0.0078125, -0.0625000, 0.0000000, -0.0859375, 0.0703125, -0.0234375, -0.1250000, -0.0859375, 0.0390625, 0.0937500, 0.0000000, -0.0468750, 0.0546875, -0.0781250, -0.0781250, 0.1328125, 0.0234375, 0.1093750, 0.0234375, 0.0781250, -0.0546875, 0.0703125, -0.0312500, 0.0234375, 0.0078125, 0.1015625, 0.0625000, -0.1015625, 0.0078125, -0.0703125, 0.0546875, -0.0468750, 0.0000000, 0.0000000, -0.0156250, -0.0234375, 0.0156250, 0.0156250, 0.0156250, -0.0156250, -0.1171875, 0.0234375, 0.0546875, 0.0546875, 0.1093750, 0.0625000, 0.0078125, -0.0234375, -0.0078125, -0.0703125, 0.0078125, -0.0156250, 0.0781250, 0.0156250, -0.0078125, 0.0000000, 0.0156250, 0.0859375, 0.0859375, -0.0234375, 0.0000000, 0.0859375, -0.0937500, 0.0156250, -0.0234375, 0.0078125, -0.0078125, 0.0390625, -0.1328125, 0.0937500, 0.0390625, 0.1015625, 0.0781250, -0.0156250, 0.0234375, -0.0156250, 0.0078125, -0.1328125, 0.1171875, -0.1015625, -0.0468750, -0.0078125, -0.0468750, 0.0000000, 0.0703125, 0.1250000, 0.0625000, 0.0000000, 0.0000000, -0.0312500, 0.0078125, -0.1093750, -0.0703125, 0.0546875, -0.0859375, -0.0390625, 0.0546875, 0.0234375, -0.0859375, 0.0703125, -0.0312500, -0.0468750, -0.0234375, 0.0468750, 0.0234375, -0.0234375, 0.0703125, -0.1328125, -0.0781250, -0.0937500, -0.0156250, -0.0390625, -0.0156250, 0.0000000, 0.0625000, -0.0078125, 0.0859375, 0.0156250, -0.0390625, 0.0703125, -0.0078125, -0.0312500, 0.0234375, 0.0546875, -0.0703125, -0.0468750, -0.0156250, 0.0078125, 0.0312500, 0.0234375, -0.1406250, 0.0390625, -0.0468750, -0.0937500, 0.0234375, -0.0468750, -0.0390625, -0.0156250, 0.1093750, -0.1015625, 0.0625000, 0.0390625, 0.1093750, 0.0000000, 0.0546875, -0.0859375, -0.0234375, -0.0390625, -0.1093750, 0.0546875, 0.0468750, -0.0468750, 0.0000000, 0.1171875, 0.0312500, 0.0625000, -0.0156250, -0.1171875, 0.0546875, 0.0156250, 0.0546875, -0.0546875, -0.0234375, -0.0546875, 0.0468750, -0.0781250, -0.0546875, 0.0781250, 0.0390625, 0.0312500, 0.0468750, -0.0156250, -0.0703125, 0.0546875, -0.0546875, -0.0703125, -0.0468750, -0.0156250, 0.0546875, -0.0390625, 0.0703125, 0.0000000, 0.0937500, -0.0234375, -0.0078125, 0.0937500, -0.0390625, -0.0312500, 0.0546875, -0.0937500, 0.0078125, 0.0859375, 0.0078125, 0.0312500, -0.0703125, -0.0312500, -0.0859375, 0.0390625, 0.0078125, 0.0234375, 0.0000000, 0.0468750, -0.0156250, 0.0234375, -0.0781250, -0.1093750, 0.0234375, -0.1015625, -0.0312500, -0.0781250, 0.0000000, -0.0156250, 0.0156250, -0.0781250, 0.0156250, -0.0468750, -0.0390625, -0.0390625, -0.0312500, 0.0078125, 0.0390625, -0.0234375, -0.1328125, -0.0312500, -0.0468750, 0.0000000, -0.0390625, 0.0234375, 0.0937500, -0.0468750, 0.0078125, 0.0312500, 0.0390625, 0.0468750, 0.0546875, -0.0546875, 0.0078125, -0.0312500, 0.0937500, 0.0078125, 0.0312500, -0.0859375, -0.0703125, 0.0625000, -0.0234375, 0.0234375, -0.0468750, -0.0468750, 0.0468750, 0.0703125, 0.0078125, 0.0703125, -0.0625000, 0.0234375, -0.1171875, 0.0234375, -0.0390625, -0.0859375, 0.0390625, 0.1171875, -0.0234375, -0.0625000, 0.0000000, 0.0625000, 0.0546875, 0.0078125, -0.1171875, -0.0078125, 0.0234375, 0.0625000, -0.0234375, 0.1015625, -0.0859375, 0.0000000, 0.0468750, 0.0546875, -0.0546875, 0.0390625, -0.0156250, 0.1015625, 0.0937500, -0.0468750, -0.0781250, 0.0156250, -0.1250000, 0.0156250, 0.0000000, -0.0156250, -0.0078125, -0.0546875, 0.0390625, -0.0312500, 0.1171875, 0.0234375, -0.0078125, -0.0156250, 0.0390625, -0.0781250, -0.0078125, 0.0000000, -0.0781250, -0.0546875, 0.0000000, -0.0859375, -0.0468750, -0.0156250, -0.1015625, 0.0156250, -0.0781250, -0.0546875, 0.1171875, 0.0234375, 0.0000000, -0.0937500, 0.1093750, -0.0156250, 0.0546875, 0.0156250, 0.0390625, 0.0156250, 0.0546875, 0.1250000, 0.0546875, 0.0468750, -0.0234375, 0.0937500, 0.0625000, -0.0312500, -0.0078125, -0.0078125, 0.0546875, 0.0000000, -0.0781250, -0.1015625, 0.0390625, -0.0468750, 0.1171875, 0.0781250, -0.0703125, 0.0234375, -0.0156250, 0.0937500, 0.0078125, 0.0312500, 0.0312500, 0.0546875, -0.0078125, -0.0937500, 0.1171875, -0.0156250, 0.0859375, -0.0625000, 0.0000000, -0.0859375, 0.0703125, 0.0390625, 0.0234375, -0.1015625, 0.0937500, 0.1093750, 0.0000000, 0.0234375, 0.0234375, 0.0390625, -0.0234375, 0.0078125, -0.0859375, 0.0937500, 0.0000000, -0.0312500, -0.0234375, -0.0937500, 0.0156250, 0.0625000, 0.0468750, 0.0390625, -0.0781250, 0.1171875, 0.0468750, -0.0468750, 0.0312500, 0.0703125, 0.0312500, 0.0546875, -0.0234375, 0.0000000, -0.0703125, 0.0078125, -0.0781250, 0.0078125, -0.0234375, 0.0078125, -0.0546875, -0.0859375, -0.0078125, -0.0703125, 0.0312500, 0.0546875, 0.0312500, 0.0468750, 0.0703125, -0.1171875, -0.0078125, 0.0859375, -0.1250000, -0.1328125, -0.0390625, -0.0390625, -0.0390625, -0.0312500, -0.0312500, 0.1015625, -0.0078125, 0.0546875, -0.0390625, 0.0625000, -0.0078125, -0.0625000, 0.0937500, -0.0781250, 0.0468750, 0.0781250, 0.0312500, -0.0234375, 0.0312500, 0.0703125, 0.0234375, -0.1093750, 0.0078125, -0.0234375, -0.0546875, -0.0390625, 0.0078125, -0.1250000, -0.0625000, -0.0546875, 0.0703125, 0.0156250, 0.0078125, 0.0156250, 0.1093750, 0.0468750, 0.1328125, -0.0078125, 0.0937500, -0.0468750, 0.0468750, 0.0156250, -0.0312500, -0.0390625, -0.0937500, 0.0078125, -0.0859375, -0.0078125, -0.0312500, 0.1015625, -0.1093750, -0.0781250, 0.0468750, 0.0000000, 0.0390625, 0.0234375, 0.0625000, -0.1015625, 0.0156250, -0.0468750, 0.0312500, 0.0156250, 0.0156250, 0.0546875, 0.0468750, 0.0546875, -0.0078125, 0.0546875, 0.0703125, 0.0078125, -0.0625000, 0.1093750, -0.0156250, -0.0390625, 0.0937500, 0.0625000, 0.0625000, -0.0156250, 0.1015625, 0.0000000, 0.0781250, 0.0234375, -0.0781250, 0.0156250, -0.0937500, 0.0234375, -0.0546875, 0.0078125, -0.0546875, 0.0859375, 0.0546875, -0.0234375, 0.0703125, 0.0937500, 0.0625000, -0.0078125, -0.0078125, -0.0625000, -0.0703125, 0.0625000, 0.0546875, -0.0078125, 0.1406250, -0.0468750, -0.1171875, 0.0156250, 0.0937500, -0.0312500, 0.0859375, 0.0234375, 0.1250000, 0.0625000, -0.0234375, 0.0078125, 0.1093750, 0.0156250, -0.0156250, 0.0859375, 0.0078125, -0.0859375, -0.0390625, -0.0078125, -0.0546875, -0.0546875, 0.0000000, 0.0703125, 0.0468750, 0.0234375, -0.0156250, 0.0859375, 0.0000000, -0.0390625, 0.0781250, -0.0234375, -0.0625000, -0.0781250, 0.0859375, 